function [Y,Xf,Af] = myNeuralNetworkFunction(X,~,~)
%MYNEURALNETWORKFUNCTION neural network simulation function.
%
% Generated by Neural Network Toolbox function genFunction, 12-Sep-2015 18:26:05.
%
% [Y] = myNeuralNetworkFunction(X,~,~) takes these arguments:
%
%   X = 1xTS cell, 1 inputs over TS timsteps
%   Each X{1,ts} = 41xQ matrix, input #1 at timestep ts.
%
% and returns:
%   Y = 1xTS cell of 1 outputs over TS timesteps.
%   Each Y{1,ts} = 4xQ matrix, output #1 at timestep ts.
%
% where Q is number of samples (or series) and TS is the number of timesteps.

%#ok<*RPMT0>

% ===== NEURAL NETWORK CONSTANTS =====

% Input 1
x1_step1_xoffset = [0;0;0;0;0;0;0;0;0;0;0;0;0;0;0;0;0;0;0;0;0;0;0;0;0;0;0;0;0;0;0;0;0;0;0;0;0;0;0;0;0];
x1_step1_gain = [0.829162350246816;0.899306985405108;0.829162350246816;0.899306985405108;0.829162350246816;0.899306985405108;0.829162350246816;0.899306985405108;0.829162350246816;0.899306985405108;0.829162350246816;0.899306985405108;0.829162350246816;0.899306985405108;0.829162350246816;0.899306985405108;0.829162350246816;0.899301160516387;0.829162350246816;0.899301160516387;0.829162350246816;0.899301160516387;0.829162350246816;0.829162350246816;0.899306985405108;0.829162350246816;0.899306985405108;0.829162350246816;0.899306985405108;0.829162350246816;0.899306985405108;0.829162350246816;0.899306985405108;0.829162350246816;0.899306985405108;0.829162350246816;0.899306985405108;0.829162350246816;0.899306985405108;0.829162350246816;0.899306985405108];
x1_step1_ymin = -1;

% Layer 1
b1 = [-1.5659278369298908;1.6004415430692196;-1.7229475784030632;1.6117772661921625;-1.6371999980452201;-1.6814809144500642;-1.479148434328134;1.5761631241560825;1.3464861138912991;-1.5527465956276914;1.3208330524397971;-1.0767786503701149;-1.1832813984530668;-1.3642252827704131;-1.2640965530999699;-1.1364046985330032;1.2629992368848457;1.2932292075396521;-1.0034716020639227;-0.85526331600779981;1.1229326810102738;-1.0593255222964053;0.92525580183116307;-1.2207893153360325;1.0220466340318977;0.86961098152487848;-0.8070226752776346;-0.90534140684301712;-0.65997921597802156;0.72127507483280695;0.60118855814131189;-0.5370776116143049;0.22975670348761573;0.6263663588727697;0.38008767054668463;0.37753096636705041;-0.40768015081662529;0.45352053378065871;0.45982841726755846;-0.32053855419595456;0.26711127939068746;-0.25158809707492669;-0.33282017849211865;-0.44635283088982003;0.22161652470897383;-0.35286157694899556;-0.086685504210282094;-0.35819119936403188;0.10133256716669677;-0.26484706232070593;0.23626791036223174;-0.0020324658082628427;0.092512908408650146;0.074377438177547842;0.10189223750816644;-0.019286899909514457;0.12522229513184294;0.076736972549626262;-0.080899440701887496;-0.073504553788092869;-0.093904480957446135;0.2125325690335966;0.50658603201790475;-0.38396758422860222;-0.032561292756213576;0.0900199464625175;0.28947664450791244;0.38783341189097809;-0.28589619004155198;0.24360439092693834;-0.680691277176806;-0.54460687883830072;-0.23377932732319118;-0.41713989303550975;0.46269897809659566;0.48540151320708574;0.76900156875652392;0.41957490533864905;-0.84816847471291446;-0.46533337159442878;-0.5681173414093259;-0.71064634616306999;1.2175132275245535;-0.8747059323689178;-0.96734165598610866;-0.77169250357473673;0.87929350867426381;-1.0618558068065114;1.0329017560883658;-1.2014860384306434;1.3815109715119158;0.94640065008541896;-1.2429334448134455;0.8808089133839655;-1.4262886597533548;1.2988151854869667;1.3720127277748615;1.015393399193649;-1.4994689481674983;1.5463231686889336;-1.3249279947169887;-1.3708170346394879;1.3868880205015108;-1.3824930721989506;-1.3328932890582139;1.7127208436257439;1.3838487837378037;1.6858607613925072;1.6303195527159506;1.462313604658269];
IW1_1 = [0.045957266612885246 -0.08279200019033281 0.24175644719869385 -0.15546836546990683 0.33315485330754602 -0.14820262091768707 -0.064048451690028874 0.11155388521016155 -0.05659958691290809 -0.16599359145299755 0.35993433344570619 -0.33844834166861071 -0.51271222478769984 0.30200296911274727 0.46861907194588609 0.249815714515461 -0.32514821067391225 -0.37878449966424843 -0.054006359879365889 0.0090485420112945796 -0.025617120901803042 -0.045602648184288559 -0.093705288409076326 0.22244615099203566 0.13803854873067825 0.14730815713606163 0.45584889782420279 -0.086931727751683174 -0.22594573412511781 0.21701893672929529 -0.250489411746315 0.16084186357853494 0.21487194994666006 0.15855244974107963 -0.21423859737752921 0.03917894268181276 -0.16671620350543578 0.39886403688541616 0.2863604216029062 -0.080788985521766041 -0.33489299184656462;-0.0019200990310470423 -0.1918772759196378 0.20912422773422187 0.076915374609700271 0.0071453428548117932 0.055395341488969053 0.26343887299076241 0.23189813640421839 0.18238939396715451 0.18059296900485902 0.18322231666821018 0.064402772140805059 0.067375197713807899 -0.36977480490464976 -0.24784034508063107 0.075368534197019624 -0.24664527511157308 -0.38575425935011193 0.20244565086872654 0.086865905765274337 -0.45209051072458173 0.23896695290319916 0.053375343114804609 0.030384242114767198 0.23508456565027055 0.4212993115025721 -0.032602120538303088 -0.065138630928095853 0.21909179447621213 0.072490305438888764 -0.23775076314289881 0.20068485115237913 0.038758596089168505 0.040924148170517233 -0.20941533830982451 0.019551179659716859 -0.3578467682115154 -0.015761489156829584 0.16364258154014205 0.17667063712516606 0.053231742408158617;0.26346026647547061 0.11270241524562079 -0.04454336604120776 -0.16860261065766832 -0.03038235190355254 0.14394745107871373 0.42712581974110425 -0.11006011200205321 -0.1040515580865269 -0.20657243914867421 0.24922819607576294 -0.28308590388310195 0.17524434455267093 0.06782542061457239 0.13666833427610725 -0.33436922706397976 0.050271016088355963 -0.12259662649810565 0.10922610185407551 -0.037032109256672358 0.12833018723403838 -0.25970500747616404 -0.2293985788625949 -0.33246324215797429 0.31805368429656217 0.080701593172866321 -0.3082907974324694 -0.27640350415542564 0.29972419940314288 0.052056176599790359 -0.16268516300777636 -0.47730895539982576 0.32180564470991474 -0.057921398665091092 0.24603245469079726 0.22825679526163076 0.051756412636142828 -0.032634942379623923 0.06661773838476949 -0.10403105127867041 0.1077463715770853;-0.31214222982030398 -0.069539799765828594 -0.39041979900845253 0.21646925886520382 0.17659795982880158 0.18646567479521958 0.39136773856323254 -0.51109504205479106 -0.4309147846321244 0.32521097649116076 -0.41773032930306203 -0.30987406426454617 -0.29533714171759873 -0.1014211948141021 0.13047968974428786 -0.3749293963588381 -0.19062423306900994 -0.21091826444493209 -0.29602128088680385 -0.12141147508825591 0.131151662069981 -0.15259920445378553 -0.27633454473584096 0.17006722480882491 0.20430961788780794 -0.11963550572870375 0.19418281626209616 0.091284083782783659 -0.14865322149365609 -0.091169753814037816 0.21032476716381152 0.038278614056311534 -0.055810296768029767 -0.05101080795004001 -0.084891321223833235 0.1477018793936011 -0.15656965403056616 0.14158576052780167 -0.18516251096524902 0.06028247028415884 -0.19319382459771625;0.34687753096712615 -0.37467797766597016 -0.25163421236219524 0.29303050482301296 -0.42583165716786309 -0.16262081008334517 -0.39878586189956622 0.19398477969728614 0.36250787662823425 0.4739307630448592 0.18792978766209831 0.087353060999719984 -0.13633015790154687 -0.40677082215670274 0.36054627631493874 0.27477630329042807 -0.10083308530988747 0.20533802639072166 -0.096103270238236102 0.10408850291337572 0.24940057892449594 0.28073423325011276 -0.081886325073470947 -0.24233496593646944 0.058834601056924563 0.25828416508183172 0.14770710323865743 0.15443946649762083 0.17875218683432859 -0.18013435512220258 0.10523315190082398 -0.16742195043323568 -0.025526276089758833 0.22797032398214748 0.044017648064560891 -0.069301247895654394 0.45989217427078666 -0.33390490155163716 0.4007217914688132 0.41202352968120665 0.03526652128735646;0.21239976782999279 0.1629357597192567 0.037778672466774181 -0.25128705802669088 -0.046165780815433155 0.044781771812016827 0.43751722149588085 -0.25718255888071573 0.15712539133429038 0.054337179730503456 0.12709499640008798 0.0041559792292996233 0.17510513701753405 0.059032570097940752 -0.025495953369847727 0.096371212193644931 -0.12217901923289451 0.31621649265910018 0.044133877958262221 0.26411683263299485 -0.10955569017701604 0.092578363585842163 0.21403931243640492 -0.097518564725349519 0.23211870248698202 -0.0038511938795204575 -0.4025259019112265 -0.34612034343589626 -0.19100092610712857 0.0504982931539594 0.058691451894269636 -0.28199441150843457 -0.11524102300254666 0.21599955126802775 0.30008518228858305 -0.3712945189443192 -0.39849223660958832 0.041464954455973112 0.18973982789396213 -0.090359462691391418 -0.21903181917349848;0.23543304438871065 -0.087021085518662944 -0.23364989486279739 -0.059976137253037486 -0.22107333086299055 0.22204591537784105 -0.042686993637097909 0.10215929049633728 -0.21930354606247066 0.212580412323713 0.1537837105591276 -0.39938874587870099 -0.079535786399923758 -0.26933073813581948 -0.023449366912435026 0.22055728073513198 -0.11519565898091422 0.047582441892804972 -0.042303458588684284 0.045429506221450401 0.42657203213194689 -0.17630531399383023 0.00096088538675427344 0.26886366233212838 0.018578789367891282 0.10282447017984248 0.34224928024848944 0.11346992478770479 -0.16756777120427963 0.4879833587286328 0.12675222809868533 -0.15448346697387746 -0.44067862926413492 0.38234033031226111 0.42137632446765366 -0.21889874880572563 -0.13338546447077673 0.074728159495672297 -0.37134055255531523 0.017874596347352837 -0.20390656195162798;-0.16994131567450618 -0.183152335663682 0.23127120383299674 0.33998678511164748 -0.11996815292837562 -0.43007868364368479 -0.25972951012237128 0.13416751209259373 -0.17061728449963068 -0.19527738995001859 0.14643456086356815 0.085809733820303644 -0.058883892864686919 -0.16699301281263024 -0.10578376029316192 -0.5187027064879709 -0.19692400035621876 0.23888225274507169 0.27429685573761259 0.069306031677176347 0.3371896832811761 0.30456444744170502 0.16665261140045703 -0.50771511936033042 0.049571722454196915 -0.052700169577236305 -0.39788451774013239 -0.30585333015773947 -0.037222930363494097 0.11103295965136044 -0.063236747802646404 -0.21767120587127198 0.34820972410736983 -0.0046440315019366371 -0.12915073993983955 0.025868537734919813 0.31942769945849175 -0.37729281829881445 -0.38810265905268887 -0.14260778445923653 0.13588730747248237;0.06430987802768047 0.22644250722971912 0.16388143982780085 -0.17471402550755538 -0.048422360200402657 0.04709472073223156 0.27186115253079646 -0.43903974386981426 -0.18342241790947195 0.1873972371248874 0.1930660223972073 -0.03975263590399733 0.049394783462716481 0.2026954313638519 -0.43176643612557547 -0.25116582950463801 0.12486199170270981 0.28690819682885094 0.22456800212811878 -0.021442366205786469 -0.23825389870615574 0.077372827167677419 -0.51421024474418964 -0.20545682790145925 -0.25819121633603126 0.29995952131789383 0.14940726885001374 0.1833294284241932 0.47371840072878074 0.11509423235634032 0.082806325981464021 -0.18117334517250719 0.15270578659654452 -0.52376109188198106 0.032237812134368798 -0.059356611600729622 0.17300128997358344 0.36474572131729671 -0.43851427518739461 0.083655576181209459 0.078325118052984921;-0.057403621985993677 0.37343684194544163 -0.12674290132288468 0.18160382656121585 -0.16639494933207175 0.13274577599124554 -0.029026863071618125 0.4856217031166542 0.25124459572452151 -0.21939709193521656 0.19661913771897149 0.15399059850075067 0.11755959288251382 0.086446945922131022 -0.10841087773710455 0.344707391047409 0.12692217359758712 -0.31717358419476582 -0.3411374885713484 -0.015006612162065848 0.15138577776994899 -0.31462398432733923 0.050931622930946267 0.20769119118684198 0.13545245848080423 0.35619030752852748 -0.34333803719183686 -0.07441324466327863 -0.011924498057800813 -0.13116851837556359 0.14153634566542667 0.23012772790317318 0.37657981918735711 -0.17512014686192448 0.054772385303700467 0.36712962598968929 0.012919872339693935 -0.34827127111899059 0.20269022779656981 -0.016546550934866094 0.33577180098377085;-0.1970627704594996 -0.27570726086967901 0.18024095165571111 0.038040962977316621 0.2943662882504508 -0.21502893767379461 0.12288983362401769 -0.063089113615688475 0.23707356903597612 0.25562834983058458 -0.045190158701922931 0.45635283382516678 0.12157299349120937 0.14430324246802234 -0.12890468969613392 -0.22069721216847332 -0.47127307420860731 0.20277286472471359 -0.40994087908035165 -0.21079054085602339 0.45401075154619408 0.097678130532294044 0.091370599484766876 -0.40426325233062566 -0.0043024474556870151 -0.3540873339590308 -0.16197288696902326 0.48435539777137981 -0.13790755809750022 -0.25801817983494535 -0.21638454164816326 -0.4634722444494076 0.020982592654942612 -0.27747871108110184 -0.097640023727456879 0.22054427986593456 -0.24860652284890075 -0.046410959110033012 0.13063636689745245 -0.025838192291893648 -0.42960829150593727;0.35052544177839579 0.19606922807597887 0.32959331225885297 -0.25008283359657024 0.18700012637169053 -0.23335167205620885 -0.37415643015447575 -0.12592206852344617 0.30015182907454585 0.080773815304484575 -0.3801695933851339 0.12921379928632779 0.10286306977693661 -0.24939999781973549 -0.30338393109239226 0.40835397788865219 -0.0083160269344546758 0.07779282298374203 0.18496542680369779 -0.31460310433116001 -0.3550840844259518 -0.31740312788099451 0.12194348931906594 -0.060833457056536831 0.13458113174247999 0.10519628173395387 0.066625147112752803 0.13299584678657031 0.14137810213261895 0.23592187915136287 0.27594785416004902 -0.048674012808523244 0.048315004712596678 0.016966262447446291 0.29461410991712411 0.099040987680724765 0.14500451182486149 -0.11912781316586404 -0.10491510959627415 0.17526654287509041 0.17090132369329672;0.17937347169162837 -0.21350327903642768 -0.11468180602183803 0.17751857032547222 -0.39962263772384848 -0.0023871786908178771 -0.28578106350882965 -0.15162627748517118 -0.50986747054256298 -0.067422424539547596 0.072459635531045008 -0.059670518645591114 -0.25485608062089105 0.16684938559141768 0.018326003128320365 -0.10498496700128139 -0.056486727230120784 0.19826027681843511 -0.4279464644053762 0.36587705471097887 0.17193452045110508 0.19339539827659286 0.27475057918588208 -0.26960334193243463 0.1547816378789709 -0.75275808081590567 -0.21208725141340284 0.13483025095347817 0.45349866044453313 0.02747578113961726 0.10624115866370662 -0.35592250278841542 0.29651505428305369 0.21947496915826739 -0.066476375432436896 0.17369163869591139 -0.068278834524167387 -0.31471734691025766 0.22983678343037037 -0.081550928156774866 0.25706548799724099;0.5091577432471045 0.36581897389306101 -0.21329066048390155 -0.11637439825189558 -0.25480545021956003 0.0096173901541626861 0.41193031222312831 0.29719535245543754 0.11654229546219992 0.08224454875455825 0.015686043421139932 0.1658224747609402 -0.081831540196736219 0.22149040750484519 0.23877601518102512 0.1270333685016958 -0.21337488451070241 -0.11016538673240889 -0.22620223486211535 -0.49775544805909433 -0.35705079723542371 -0.31439528927901184 0.48761084232719198 -0.11650190150920436 0.057330202100006528 -0.1577967992025639 -0.086170771556600537 -0.35324292155819831 -0.24750199309009249 -0.145471118516658 -0.38988320978840629 0.085470644837073506 -0.43603407576051467 0.080713523472859414 0.012123227393038566 -0.39586701420160231 -0.47023024378297168 -0.39635291791012084 0.34295922803917683 0.079152583173676058 -0.2095218701207624;0.29190963062619701 -0.45610004850931007 -0.066080809804232143 0.21451956915514558 -0.3099601086107357 0.0032040528123607357 -0.15986930571548189 -0.38444843043417037 -0.08019543772959653 0.19021512694672629 0.17869433203993859 -0.26548489014137722 0.010014019513064455 -0.20037917867218427 -0.030514367946535913 0.2395180762131961 0.46391982420035038 -0.10941845617810016 -0.29124545192131801 0.18616327124462362 -0.032127388261038392 0.13665269170814745 0.2068215800558533 -0.13090476560432276 0.22198529089775126 0.20559478482621094 -0.094296281059964265 -0.055184669854420741 -0.2481317461949713 0.18202995627643903 0.15144252472835004 -0.33938934235337398 -0.033905523368028247 0.24089489193551672 -0.059766405257095985 0.22271419847007887 0.17738354137487014 -0.25212612154641045 -0.078275491819634835 0.22764986433582171 0.36943866249440427;-0.04521585892009107 0.16853737170518909 -0.17911392505893514 -0.26020672941577916 0.075374791471333122 0.17314076483041901 0.073742290210471628 -0.28075636711393748 0.088079816648407541 -0.37620919306812767 0.053028108754111 0.27828478918409488 0.32700507994408984 0.3799059369490006 -0.11044289642917811 0.25511597332885505 -0.3615938492487904 -0.15217569361700373 -0.21531774346487581 -0.083729427177528015 0.13572331830563469 0.39782830983797401 0.012750198255171281 -0.29619173257088172 -0.41861001434837719 -0.047032893278098675 0.30508748322066648 -0.27295965410127004 0.034344598790224362 -0.10671491737942017 -0.12867091583669218 -0.094516565809719386 0.42349491242014925 0.21302269121782091 -0.035868703655258558 0.0034553986430057625 0.23862960631612254 -0.13812301111147193 0.062597918782500733 -0.17832606375236948 -0.23885349482536244;-0.082493923757682025 0.27705550493906556 -0.083387169853401444 0.17589023800924847 -0.10361179622006361 0.37229437331329979 0.10597950921217124 -0.10782516670301265 0.16724371881566438 -0.02145604278762912 -0.033926968290618885 -0.053593563654858692 0.015815455140945518 -0.18153293369095619 0.12224947428300155 0.21815806865506249 0.23277145950649894 -0.28679560400641491 -0.057494668371681185 0.21827057145645706 0.080600758711434267 -0.20353523441053442 0.0050817522833974307 -0.2212623471844487 0.012191445328717276 -0.03859863378644339 -0.49151272675197094 0.031558248458237778 -0.23001144713044552 -0.071648720944306521 0.21336118110265445 -0.41394747272928117 0.42413929969269554 -0.15441367217833521 0.27527213148010382 0.12608292705005483 -0.27931453687409741 -0.2352134376409471 0.17996982228157743 -0.0079552786960156909 0.27452618312218202;-0.40544841726038283 -0.051284490922188702 0.29706108135598258 -0.1498438223791311 0.60380631075427182 -0.088040894255317206 -0.25248017613868401 -0.20244561917895529 0.022639658195280916 -0.090834626072693936 -0.069375468621510852 -0.18984018100892003 0.49893859470551238 -0.40637157802005502 -0.026614181671916384 0.30601047781210189 -0.073818945536017033 0.21032472526424018 0.0058170385587718995 0.20414582100814818 0.26523992731417029 -0.17992106554867568 0.17274089676238952 0.37687006140258561 -0.27637693428314142 -0.42321579266557963 -0.075924775911941023 0.039265442172096827 0.2347513543219748 -0.28811692628646329 -0.42814608980860414 -0.10285086456264562 -0.093940421066957699 -0.17698968584394745 0.32051233515770933 0.41859427931298482 0.10633824668411891 -0.10393615314306492 0.28851144992844541 0.019032214987873108 -0.32981195339696273;0.3591688390951574 0.43635864257600382 0.37316513067683205 0.085376823000813923 -0.084332796637929183 0.17344115934296606 0.23565244539314945 0.050555403818656815 -0.001963763989773402 -0.032848137194742909 -0.32166786705686351 -0.37580695946507459 -0.030738719321822351 -0.30762023125192434 0.48977876014046179 0.083080017787679566 0.35339513868179934 0.33339487016283303 -0.30277123199489003 0.34607830117018185 0.32043133415910502 -0.18929772063365616 -0.012098456997899076 -0.36728562047806396 -0.38437801977590325 -0.29348949353702275 -0.22538283906695844 0.017184794189156027 -0.17039715177248219 0.29353033859271721 -0.21655868544283552 -0.196198759622325 0.29188513892586415 0.2529090345204425 -0.34303302605188229 0.24407866619030211 -0.080564708030282497 0.065343403493189497 -0.17409683357606628 0.25157722386180792 -0.43653352430529591;0.23443123972542049 0.039795607145451987 -0.055793449531183835 -0.13958916091241957 0.17316790436014684 0.02545826191577806 0.22961017875952469 0.050559690809857928 -0.41168979661836702 -0.20000629639195786 -0.082142118882371912 -0.33064217973554449 0.077054009735357448 0.40683224417771968 -0.14242889348952451 0.12693580167723129 -0.21686388039650156 0.2187411259140381 -0.28408931869816462 -0.11266094101211824 -0.17926055569503141 0.10141264987481663 -0.059361813006432264 -0.20901625125049181 0.2698590944505988 -0.17032416198500389 -0.23911184805857322 0.41838249822459106 0.1548879598906811 -0.48478450233849257 0.31495421790379596 -0.39129702801308142 -0.029741306439112016 -0.066222838619408045 0.07101397886005692 -0.18723547600829998 0.073120999965588462 -0.015803436018080916 0.33372400117460088 -0.42031126661174456 0.039601285595037464;-0.071769354227759763 0.26269398618383089 -0.47082152027889818 -0.36326336515820362 -0.0085116437101271456 0.066763432331504877 -0.23022306920184729 -0.2580295972000809 0.19217452690516745 -0.38786881511125326 -0.31296794869236322 0.34386503952211322 -0.32862761915380412 -0.22425136423610917 -0.29063543315628032 0.072901697828734457 0.21035407640536344 -0.25837902974440485 -0.14454650788513801 0.24793955620276606 -0.3586659801283662 -0.37373824542388762 -0.068497290025441693 -0.084347668074628582 0.082643125378713697 -0.1965082851629891 -0.36071964259075012 -0.27862811791839021 -0.41816782635959793 -0.17750539600549592 0.12813764588831916 0.06909399589804173 -0.13169170363440275 0.25674748448788176 -0.19634576415047975 0.08066322955833867 -0.17027605125290668 -0.16501357675818695 0.12893987918625169 -0.071843143914297636 0.22836158012057969;0.1253474496288568 0.10748807609584653 -0.33799747529098711 -0.16760996589981206 -0.18261082020636873 0.29544686292751726 -0.37844857306299989 -0.35144982385501883 0.27643912028684381 0.051291644709302031 0.044891952437361993 0.18129092197148447 0.066463485531899194 -0.40322227749548056 -0.50215389266961274 0.10321550798793001 0.41371508948138275 -0.35128131839349824 -0.042379497581643187 -0.093968398524969826 -0.1544793512442203 0.36561686727939235 -0.032050670316651882 0.1268116136922941 -0.11291921716814318 0.23312836754116101 -0.39380539478278137 -0.12277478342731238 -0.2615471068792708 -0.27094585335984567 0.066906164920355934 0.36231953858410482 0.4540914745217377 0.013151306160786521 0.052635462668221215 -0.021503297181697432 0.17607541464866777 0.0095884996513053 0.44537166320466165 -0.04692773757134111 0.014545328279538602;-0.023869668040176945 0.3615173390275398 0.020709427050162991 -0.14908159287826314 -0.23601002465096715 0.046674145219320243 0.057880261205006701 -0.0052630277925433599 -0.60745550181610131 -0.27716885618743747 -0.45539397434838441 0.00093447069026727191 0.25633933352386429 -0.06652931916356615 -0.32439832795450302 -0.27430572973153061 0.041707964674982417 0.01766990827307352 0.13345097334946704 0.16729639803481691 0.30226172280551472 -0.18474261829398633 -0.18222147108860073 0.32340972748226821 -0.3487503101222853 -0.25820310872192515 -0.013170108782401579 -0.084152669180639489 0.17483345993417002 0.12633952262034503 -0.085752779524591566 0.14505614128538125 -0.039158803629354567 -0.44530135694029827 0.29396742231501982 -0.025040142781575656 0.37577518285235978 0.016858309660267634 -0.30571622966810996 0.25584562675172023 0.41272347775519502;0.47812334954540764 -0.13370422226128809 0.31270895182170927 0.14539225879440587 0.053934664622144468 0.013112844951580917 0.0047636613484171152 0.19438717934152067 -0.34089058464123229 0.17204975794224084 0.056970893345775653 -0.088521148682602357 -0.21268204500706284 0.24836499090141601 -0.19146224750884516 0.207180795430463 0.018618629925041333 -0.0057279857987180063 0.10782906212512375 0.2701039786817559 0.33793187785687123 -0.065832019652639517 0.067630871330180961 0.03613202107955172 -0.28693366924264557 -0.23848173482079379 -0.16854739582625552 -0.1342872235295435 0.12659605314508454 0.0038603332377356459 -0.035790502253723329 0.47041249201084417 -0.033140713178268319 0.059821471457338418 -0.088445099514763925 0.10520607509792675 0.012527764463702504 0.31603590227983558 0.10661478361359859 -0.48179115474522771 0.3632038995326029;-0.10054483974022743 0.066708457970655791 0.14667845375006391 -0.043450814547108488 0.33580790862078108 -0.26986905049185328 0.51615371785177822 -0.096659558072949264 0.47480472439497384 -0.34409309925056869 -0.0098794158541046333 -0.097916514667386378 0.34512379350599853 0.17934633436849309 -0.12969899103098126 0.048195745409485069 -0.022621533852592364 -0.023810360264582456 -0.22733058773069065 -0.38988347407156815 0.19767332291238066 0.17007803463299739 0.069962725979179671 -0.2651111512804521 0.20589075566777462 -0.056473408827525572 -0.16691036567669829 0.12299478004724759 -0.15672660283773188 0.049110693778776901 -0.046969757822996748 -0.35366868368161519 0.050686620941704848 -0.27715174549128746 0.017913523774453263 -0.040740570144048749 0.22285396007078676 -0.48104186817426992 0.29365924066086962 0.28585613095489099 0.031398848804386793;-0.188203127733097 0.44003790404476917 0.049232668717807716 0.27911624812204378 -0.26870145330427841 -0.059478834070914095 -0.16263590869228969 0.2765462937498489 -0.16422001483469964 -0.093610553609865726 -0.0037016522208494392 0.1057226349955267 0.31301695166653498 0.29024203326938586 -0.054915097873025731 0.047776866187523567 0.015332166615366447 -0.14337761824709636 0.1858693907525959 -0.27257487610365377 -0.12324645818448315 -0.16492329312406309 -0.16978818833255252 -0.37287645456639529 -0.092844959001832497 0.030462678356524484 -0.069577136740352166 -0.031129003439826639 0.29292441547896114 -0.14947156020608349 0.3826932285497367 -0.50177599868992806 0.34545869150585495 0.34851798286717017 -0.0038553998967219387 0.13951067485314314 -0.26816638387370717 0.013010615169672626 0.075153796048994498 0.32098402662529768 0.065047198706227119;0.16385789552153524 -0.069384166732101266 0.1399880360156549 -0.28047948165638048 0.14086879840215955 0.51708658513470529 0.14698980429070596 -0.18587236435607066 -0.31217008184669459 0.011934897100693804 0.085402253958806865 -0.30812904430164001 0.040425679646300228 -0.11577210245380991 0.26950403107395582 0.094372837195276935 0.10071795317350329 -0.080249312458364072 0.14422458545887415 -0.21229829501150141 -0.31062530072767686 -0.1982023668246953 -0.4590221017520168 -0.41112713909444271 0.26897621736957122 0.36079260260196067 -0.041313095004017579 0.15022171077672877 -0.27810788388821661 0.17928428552535741 -0.046694972118399666 0.11994825316105767 -0.19737783617927213 -0.026451260601826249 0.080943535178089082 0.36069337933580869 -0.032047886133546533 -0.31778467778175895 0.4729564896781005 -0.17146134881747865 0.089359598623972775;0.38115284433228641 -0.27904563064252808 0.21473083955623204 -0.063898096559625195 -0.0077766429473565494 0.25218165589075064 0.19335293606602699 -0.57040338657477663 0.13933609710467718 -0.17382184692861755 -0.49946363791565213 -0.42394056029985638 -0.62309623253703506 0.14932239535400846 -0.14499258909329066 0.49679788452203999 0.37666468500584688 -0.10555501825937402 -0.083033157769814264 0.022216783051848404 0.29774144732610863 -0.19872362386507289 -0.35977089819772662 0.13434456451095106 -0.098259858119485122 0.34863463896023661 0.27602425855783269 -0.082374782838277427 -0.072369828903330075 0.16976230354590091 -0.23970996533122096 0.21471539154699862 -0.27695209177058377 0.042027664928748237 -0.33487772334943289 0.72055149661753337 -0.072507703928434683 0.26525998144419549 -0.15646484222938015 0.31377631017654328 -0.1296684455346695;0.28857994234266432 -0.21488984430347707 -0.003043970670368195 -0.36774322960606004 -0.42719598674436582 -0.11555743578591794 -0.16435013480226557 -0.0042464355080691777 0.17166223643601586 0.10102931992725771 -0.066465556291400149 0.00087186750975220759 0.15820573595957607 -0.13917401100385321 -0.046548222067683484 -0.19383320748896252 0.27497165561367132 -0.32726711591832691 -0.1469388172206304 0.11496879520451948 0.13673752283071278 0.25395798822899129 -0.24783525882626076 0.081895835275820755 0.46444442450953194 -0.20761557433214498 0.19282970550112113 -0.040776465412054076 -0.24162046781445848 0.1860956914919438 -0.47471486616103964 0.22277246130994868 -0.064499841707887584 0.2230564316487213 -0.04393428344872756 -0.17143130861956696 0.32236816095704551 -0.11887264696993079 0.10558902331441551 -0.28489225383004446 0.23820890165158715;0.12355874171129891 -0.081540335990718138 -0.49486488103229104 0.50489608249089046 -0.17937532430826983 0.22681805642409783 -0.42884642094019071 -0.16583842053673084 -0.16299979601602652 0.15504103327500249 0.067242619930584946 0.028900386684332081 -0.35699992987038354 -0.0024562768726451834 0.16160297039634208 -0.14523434580738515 -0.10178584001747235 -0.057622656367347237 -0.08884781486123032 -0.14249007884453702 0.077051069678599149 0.042646942662388443 0.16358459119999139 0.42948642508069129 0.5415785197230143 -0.1527539517849125 -0.14517541463291142 0.10126178019413987 0.046412292845329009 0.041264330870218219 -0.27628837619100899 0.08557989645430096 0.08649196039914786 -0.11621906347056722 0.19832520754615068 0.42127160326340241 0.22256763468053881 -0.34113018978805021 -0.054093447376019899 0.16548771142448088 0.10005593694270298;-0.23167142841197272 -0.44975728335354298 -0.14480729946200138 0.058966022493500254 -0.13222373653232808 0.076512910719624516 0.1084163156081093 -0.14021818855524046 -0.396341076376235 -0.40414266421082035 0.13484144066592813 -0.35586647179296133 -0.22469600657515384 0.20264466153509775 -0.035760768201860554 -0.021752953206405815 0.00053804186504089954 -0.27063205994246536 0.13818848208782311 0.32406840921521857 0.023349218000925584 0.34432395128107068 0.51619540677931219 -0.018838641066094241 0.078265827803607052 0.23243960091810378 -0.20760236929304182 0.032747262598599669 0.40895785245296568 0.2497321944511971 0.2433212431054067 -0.13303422702435619 0.34211865959942944 0.046566937581518614 0.2413586388505011 0.22470273161957241 -0.070387292758034625 -0.13732325396468992 -0.53003669106552165 -0.33172259417704653 -0.045712625292934322;0.29061897124735903 -0.32391051531643972 -0.099575744304021885 -0.23935574158679676 -0.076787858611202769 -0.4886492537253449 0.36456220336755535 -0.051133825403388712 -0.10310000884237074 0.19402565470482641 -0.13240666604127688 0.23513572587727455 -0.0160709354492867 -0.10149759847879404 -0.12908068387698038 0.14993227232523867 0.11932821257922555 -0.10790366021030083 -0.16876522495959703 -0.28109646350579082 0.25003328103674022 0.23996910099193694 0.11354420359333023 0.19209334195163102 -0.17158639314169619 0.22248592994272348 0.36791450128313491 0.097693190972708094 -0.030691293246357092 0.26958502496219439 -0.17267960316577488 0.34527672776937607 0.004156564733476753 -0.012175764262417711 -0.17801998417774834 -0.074704088743731897 0.112104643363631 0.10812109620455899 -0.18600006092216931 0.26836264565562451 -0.079803866256905318;0.30814996112111831 0.083206222561656079 -0.20920237290536897 -0.003115027767423742 -0.17653429512418681 0.050568858969140651 -0.37075602281613723 0.13573650580117072 -0.029116378383019406 -0.11379424436429836 -0.36160555426057422 -0.29928632611206962 -0.43983062250955562 0.30387508428556165 0.45153190432037116 0.025499844905587613 -0.19890413819382796 -0.049022935160709595 0.25433638973817252 -0.030573680305111928 -0.17393709098773258 -0.66897710013638656 -0.080847795140684756 -0.23368920711741611 -0.48548360431204429 0.04041232078003193 -0.058660472243334871 0.32844068039662966 -0.27709193298144752 0.2529286536018871 0.061022207794314894 0.17981850792083931 -0.36047290064941495 -0.22865104808922534 0.027674041448821525 0.25251672920428797 -0.15437977938425135 -0.40486639614482084 -0.06439185112893421 0.076491164359600461 0.28455297310735145;-0.29578785302587401 -0.28258932544498477 -0.47778629425389368 -0.2060294874003874 -0.1957730280380589 0.20053216131209353 -0.065612283993365578 -0.5555633658914394 -0.20000050819160964 -9.5819412123648168e-05 -0.29180324825955495 0.20235921807957402 0.39103038776570981 0.53015182606422129 0.22185075604959348 -0.19117263941758147 0.60711759946850374 -0.1402179969227689 -0.041281620658042369 -0.31233929692772999 0.053887210220037868 -0.060765993335978055 0.012816106213048815 -0.056170245916411399 -0.29618778633114257 0.44309840861087452 0.53480774300758693 0.35384833912967278 0.024981894567675526 -0.13752032590983349 -0.31011104915707094 0.23361802186766517 0.059387733255849236 -0.23240387625185768 0.068482112823533794 0.0003033723486470033 -0.33932680515864866 -0.34833426478734414 0.030994120222952226 -0.064689202460846293 0.30582572945889314;-0.31035643738980712 -0.10490632433059294 -0.12670778828843737 0.21987531300180654 -0.15943374874118277 -0.28268282132049244 0.23601608679283831 -0.10986546933342216 0.35868299809750459 -0.30204973023107184 0.1374193591490889 -0.16068527625765933 0.31964479225397985 -0.39344393686815637 0.24401670381352641 -0.10032437250679289 -0.38612622084644599 -0.22241701089641333 -0.4491399126776851 -0.43593426469170243 -0.21843817538943106 -0.24152176345128906 0.26275730024152227 -0.12024334858158291 0.13557086775786839 0.34660411464536189 0.30556507416124085 -0.012217791766852625 0.17048615379324275 0.12696406036772703 0.24577486901105156 -0.34785453686637835 -0.027620720679934464 0.16487550987535363 0.071500576576068411 0.2202524998475264 -0.25966983510796077 0.38389392373529962 0.55440214564263701 0.31778845679137613 -0.3946681135973793;0.21305234720815153 -0.13805449513114273 -0.26033146026148835 -0.047224026257250903 0.20812987847391379 -0.20198970959876522 0.46909457761140827 0.16456260173843862 -0.22287038776371171 -0.12149708771475383 -0.16672866010667495 0.023698608938641869 0.04923870431046453 -0.33684538201334013 -0.28122789065111764 -0.075000730833913329 0.29591831889434705 0.056232044358588834 0.33624604851812384 0.03317203463122062 -0.14794646303594683 -0.1488974147418031 0.11489437507329414 0.15350185259881083 0.39155736504788896 -0.012985068810557311 -0.25663386380106906 0.19366167319633956 -0.075717058560214809 0.21618840376672249 -0.16222970818801188 0.11870314047291111 0.33424316482166766 0.24364304298282199 -0.15582719395307759 -0.015191150407440051 0.37555054057931958 0.33543958933565338 -0.52263750123518948 0.082604849803283226 0.23392874969657426;0.24129942813767877 0.035280097563995153 -0.19820841001321765 -0.040846258859219588 -0.071147004330753286 0.041079433416154609 -0.27980301300960642 0.21273637817541385 0.026544840782120761 -0.67048953966883285 0.1023747397244337 -0.24205110082283446 0.40884502798369554 0.19225092250050527 0.049944235251635175 -0.26201077232889469 -0.062627512947297875 0.52909863193639162 -0.055795480841116553 -0.19189985681828967 0.3537355016479044 -0.37319474154359666 0.14068042484451368 -0.39301052720483509 0.41171621386406532 0.084626149782493068 -0.53916104375137264 -0.094035492750876568 0.64553206169218358 0.18799255629741665 -0.21291522648223687 -0.0082205117399772546 0.37561150873824589 -0.02723734558301015 -0.19166066665647233 0.27362570112716056 0.21602876118480732 0.30630577205985027 -0.24854963561409832 0.043095838230993222 -0.13887711130820482;-0.066277488434475923 0.27097443807104132 -0.16719777216011217 0.11896391948459262 -0.37125760723748485 -0.094136628136847797 0.084430433566293706 0.24521282843261202 -0.31034679521667646 -0.31361679329178999 -0.086867218427759449 -0.033553876184101127 0.33219473665166627 -0.13450294198213139 0.13858074805711443 -0.0086988663047304644 -0.2502897215766634 -0.25400238623941429 0.016048775802104155 -0.060732005582420312 -0.12518022249978691 0.040442147428755883 -0.44995973994672145 0.52629923643201604 -0.14675071109042018 0.18947380500741856 0.41944828302991549 -0.30087641062389525 -0.028082012769053456 0.34341822447024456 0.086838435062120994 0.1459091905266422 -0.39457429452950016 0.089988883025537272 0.055963313716386492 -0.42599233559986771 -0.18058950455812475 -0.13888124728123263 0.15566434092598988 -0.085512794807995812 -0.34225845335373095;-0.11060223469529694 -0.22966637406113663 0.047685037289943596 0.12965842852299697 -0.0021702858091215893 0.012270391831955874 -0.22918567008744212 -0.41962562123900959 0.041560952029590557 0.11469214352351327 -0.013281081068437573 0.17295191729516324 -0.032565827447739171 0.1932386487513762 -0.19980485878171708 -0.20238095016460506 -0.22205362008649374 -0.10975647404599895 0.1103882762863633 -0.097956089550861741 -0.34916622234617323 0.099409594093609041 -0.016838778342146594 -0.32951227251288495 -0.16483564650376589 0.14763733907616836 0.035781256187218849 0.34015816035001306 0.24230893575472107 0.16399030432744052 -0.03015832019930563 0.062026013104212296 -0.16520370732427941 0.095503117596778972 0.062766572085247177 -0.17695857018810743 0.48285808468970887 0.15589707341305573 -0.17577735107987605 0.071460831019939511 -0.02183629825333442;0.30392890800057132 -0.0004048345097055709 -0.39571402877864231 -0.18397703764800757 0.16246001148497979 0.13363527352900212 0.59297141778713625 -0.050748109188844204 0.2969120803180057 0.19153504547263561 0.31065220509961872 -0.085642246668604843 -0.34614222178230297 0.30588692758529035 -0.50477430333481688 -0.17785980947091459 -0.14331558653644952 0.30817802817420953 0.18205530636831474 -0.25925085563218803 0.23516416392672806 0.084432933261436707 0.33452353116021905 -0.50493311930428519 -0.55115034450149669 -0.73876386367924096 -0.062469331470950018 0.51101559010040432 0.4909516538098474 0.11731011371604121 -0.086418105263453601 -0.1458325795945544 0.033910568607567096 -0.34650894305061175 0.19610835585805048 0.19235775400512273 0.11332105035120765 -0.35545002565033246 -0.18585602280825034 0.035714575764455081 0.22890863969818706;-0.61714433139715563 0.16540988573848714 -0.0099841453191633085 -0.20197520987124762 0.04374644722469135 0.55530466208024565 0.045703688810236856 -0.40182142413214966 0.0734029636578752 -0.51238023501323238 -0.052409404833578331 0.2102151659773133 -0.13545001124992367 -0.33070009719267768 0.55683681173807109 0.28834856698194045 0.20575659154773659 0.012460301916053389 0.44404149713992264 0.2036470876275123 0.22879062251049864 0.58829088235071791 -0.089812085980712331 -0.47376273041707018 -0.09350599358832537 0.11783880537043342 0.028295282560165818 0.23618821877160187 0.2272659080368756 0.16296736737534795 -0.16405600844931381 -0.089444632717042158 -0.015048239260046092 0.01090942416180497 -0.12395292201754429 -0.17816527840192473 0.27810792106795457 -0.012193252963692025 -0.52437855611714868 -0.60269402603341371 0.29899191260811353;0.20815994796870294 0.19657891894683907 -0.10144593915199926 0.090741002701312606 0.31618046496114161 0.096838791068505986 0.0086000961791536448 0.085306594868427899 -0.66612979537946138 0.24447928777799849 0.24991830363608059 0.48958122832031942 -0.47562163275444519 -0.35873479695570298 -0.42290684590743477 -0.24106556527609216 0.11560513818666912 0.18074388874092437 0.092178146175660947 -0.0400473804462807 0.031613954188971644 0.14752054167225906 0.047562655181684038 -0.66754220701594003 -0.41825224973611763 0.21696828238747221 0.26618183805375528 0.34297119417288635 0.090318318240882545 -0.080581003243527516 -0.46281749376080006 0.30054854414477211 -0.23492394219307663 -0.46055412608566304 0.036869991408792276 0.37813414091239783 -0.23711270910525814 -0.23458243005595839 -0.46415790674258162 -0.15694581501423244 -0.14572341212740461;-0.011376304302772047 -0.0094321010319617718 0.0024960171734096197 -0.29264740557200375 -0.36244254275181881 0.026739663268647261 -0.28029805400289709 0.037783335461445959 0.16257690924664756 -0.26949212245520449 -0.0074666386218014032 -0.30120390115234541 0.46609425328409182 0.32346045266427048 0.023754410462337255 0.034756168623686086 -0.31020830271568572 0.057383868447670523 0.28956964118601058 -0.20635661377051051 -0.11116321013233413 -0.051560555638307595 0.0066883073310806847 -0.46295066722264311 0.13446652219607227 0.108801886344531 0.048325129501430461 -0.2919748714498881 -0.083908158025546797 0.43443891645924604 0.4799609050913296 -0.062747381766984564 -0.030806775216703722 -0.25026397686830176 -0.41922603017567983 -0.16046410166708208 -0.12396458702185886 -0.29974631019998293 -0.023322295124828248 0.13485472733900214 0.27009602519031167;0.20240076058460421 0.18302214378767004 0.1776982459247255 -0.23573505458306521 0.08397176482220281 -0.44261418060334223 0.57946886220974314 0.24326633112147819 -0.16661977167335884 0.014067706943219667 -0.13999078383335872 0.020279623842322153 0.091301470901505477 -0.21529066029778288 0.21490174362850589 -0.10587007841569207 0.56290441075365183 -0.1069033858517506 -0.4321637060735215 -0.10675094439431645 0.14233651015828233 -0.24196805849392294 -0.28167030738424109 0.13264689081724962 -0.23084034346829688 -0.45627326463481876 0.14082516945696977 -0.3108342524809326 -0.31135969445227735 -0.13093324344047624 0.092225900728189966 -0.02210084905307886 -0.044480658754552288 0.32974428231357578 -0.20781942987115312 0.26341377682006062 0.12642108290931206 -0.34021478260963156 -0.044865513162218318 -0.20362766758448184 -0.0047162442281891408;-0.084886736926128581 -0.054075006918087122 -0.17588248805887599 -0.043886687811600662 0.034033222481282176 0.17132760832773303 0.27889888974246052 -0.30969780893407645 0.60293149972302629 0.040636902598359309 -0.071581168073618348 0.49923533317168411 -0.11457135431606241 -0.108227800395264 -0.41509489597060306 -0.5217097988174797 0.15937710050775677 -0.16818805698617939 -0.098461567362163285 0.37305100555121662 -0.071275620380375895 0.079775681534725806 0.039499981364640238 -0.38051131099627422 -0.30911205450499946 -0.11229748268780493 0.28557273533107252 -0.27385019199916827 -0.28362827891792058 -0.30037338616643822 -0.10135372210938841 0.24004634948478021 -0.061904352756857677 0.097898396025037804 0.068677112218180458 0.12746329228979242 -0.054465134101750988 -0.3514895117217986 0.036497719170620911 0.21107026296492662 -0.016142417257611827;0.3622042103897104 -0.11199179551890236 -0.10071186157410653 0.12588086018939892 0.19487303335382533 -0.18851427440419125 0.071489809617339944 -0.2602748732072071 -0.40077990761000237 -0.21377256890008026 0.27260289580749009 -0.32656544359313106 -0.051096305338501596 0.32946903177042741 -0.3195180072506682 0.22059485072594878 -0.22312483505749431 0.3674845959148742 0.50025144161504631 -0.36136434565533931 -0.18148110927876079 0.34382919905661219 -0.26613562246177275 -0.38099420880035462 0.13167340461843668 0.22490100059335622 0.41123583326817209 -0.31792924820184632 0.19597884094102289 -0.16468790198645739 -0.053992439933308156 -0.30805571147220556 -0.38434928921290423 -0.050985223364677604 -0.3370431837907969 0.0076013593860625797 -0.047400524022172437 -0.14632435495953075 -0.1193369784765972 0.15721516650862788 0.26553404248570794;0.084453659545594584 -0.10726890107946895 0.21857371385191471 -0.16747637180806776 -0.011888223368921697 0.043386945778186324 0.13209556227547026 0.51569839975899789 0.2476200266913581 -0.054347432923506599 0.37587814819660964 -0.15259135956194919 -0.43117690608110643 0.33374455771550277 0.075395444876757117 0.018972635122047259 0.17921037016517949 0.31968055414996782 -0.17022366291589838 -0.17793706127677641 0.54617014665781149 -0.26054268245087203 -0.45390565111859876 -0.23321377447904149 -0.37071942264102381 -0.10510274031337929 0.26862665777073269 0.043943710446087796 -0.068166649240613789 -0.2120714364758397 -0.1471026458085872 -0.098433371630487154 0.35192856992388905 0.35501026237016714 0.013719023032119186 0.053292533295340137 -0.25987218870071926 0.33295575792978704 0.1866335978624504 0.28718392683678079 -0.28242934614445636;0.52260709659792648 -0.51134768829095412 -0.07592534588471031 0.34305340992917049 -0.49880987349980582 0.014749991708737064 -0.15375770249359028 -0.053306970641684728 0.1528631493032504 -0.14835557141076702 0.19311235191943912 0.71084792424844734 -0.67431189030826388 -0.019428890084717945 -0.26245862519738544 -0.033134074155850006 -0.21853081158228291 0.7375818458151393 0.35462859310049882 0.29709188703388462 0.15094171317371291 -0.40960093240388418 0.10126034135029251 -0.52542209593906786 0.11554635276663154 0.18468790948088981 -0.21762158067112311 -0.18678201153152355 -0.1869035866781307 0.41754373812313522 -0.18809333989483978 -0.29833722755504466 0.28348863548917924 -0.27797440256916039 0.06745502861500588 0.43973785735861598 0.019840191408111617 -0.17044345840035169 0.40638431812482612 -0.031668387252628973 -0.26465998078016018;0.00096691783605817091 0.097039663294206366 0.10115561168848471 0.089349566737425903 0.24897330317789662 0.15968209057386937 0.3730442070342635 0.39550475684792252 -0.3779548825752721 0.16623221959276974 0.46864246724701825 -0.30360298160365423 0.091025852013686848 0.13127327482150042 0.082851846468639745 0.10769788633572118 -0.38060267409714943 -0.16245409476912109 0.17869694282355097 0.43595523784641232 -0.12150907954273629 0.22740326223694993 0.1357662546761691 0.21859728096395536 0.31098842187635534 0.19089317603698774 -0.31937604827713029 0.40116843712668177 0.1319471419883837 0.080828747737975631 -0.057799751415487183 -0.26265527062997118 0.14096749960644198 -0.24500273384148666 -0.13128377174354533 0.1160437736461183 -0.22222351785576408 0.51109611690861922 0.7050841798580334 0.070530489457618126 -0.20011847277655079;0.17092472056141006 0.27537475296704272 -0.32269175363654407 -0.32922427348197825 0.12658210989057994 0.26107562956462793 0.04477651336958071 -0.25816213514302189 -0.34531990191873069 -0.57103881344883234 -0.205327550113244 0.22422727253919794 0.26853945359465553 0.32637268044904516 -0.15332866942999063 -0.1977339831121894 0.11897359914099238 0.17174459626855343 0.32715235752368449 0.046961538875294966 0.20694101643599574 0.083441033269166465 -0.081203720382810901 -0.31813817547105228 -0.4176732737027698 0.14401906955785471 0.41790582509261859 -0.31129375887099975 0.047091927577263666 0.38737364919669337 -0.018655096263808076 -0.095999028009152401 -0.12426186530170277 -0.027701866178970476 0.25542733736599982 0.17129211144508935 -0.012874473371240439 0.14552787255000452 0.17333558302122981 0.22407818895548207 -0.35116526113379809;0.22736380006014956 -0.234983797656386 -0.38040548540358021 0.54905972165794259 -0.05502841113999437 0.14425014476860457 -0.53278564963604402 0.29002604557797451 0.27975498027426471 0.093868910503149564 0.058717799126362616 -0.22642848013417183 0.03322223384165901 -0.08746228413154615 -0.084755971051099416 0.08132523849832439 0.30873620183014339 0.021539503520260926 -0.32403498001390818 -0.061641821296856289 -0.23264362297542918 -0.46014186712967708 0.36229973073491167 0.36478889665153985 0.13499809897949783 -0.11225142341037454 0.0010789974451177954 0.34830866965773305 0.18053922607133832 -0.085568780239033859 -0.13183756981301481 -0.44338102638955729 0.27261366791960728 0.01145324698784838 0.07426384579260234 -0.19085635540405158 0.02781726364274785 0.028486234770368612 -0.21204135771878671 -0.0018988320519796687 0.1979143779423925;0.20804265899179969 -0.38349531248715224 0.059306001243158005 -0.24554472596371263 0.39107786961728325 0.16974225141162591 -0.047163780732654002 0.098577713203774564 0.51466591513453153 -0.072846331796278987 -0.086552730613492057 0.10963481250755765 -0.11112901301730078 -0.064376811051767777 0.22719336079257249 0.19790620741393006 0.10508927641430492 -0.017398527201181048 0.16872587973754463 0.60959736792055108 -0.33645152729401173 -0.46974039131259643 0.1409727497088408 -0.090326695263029555 0.0024392079752523811 0.11710833956687441 -0.31845340623004459 0.38840317787397943 0.34930640308718836 0.0061781943344254436 0.21136037097803728 -0.26854493730723095 0.055120618268728494 0.33013138011751247 0.29848015375713161 0.36365003328811385 -0.16458073314658123 -0.43003937023393363 -0.094878480164374959 0.2276840208080439 -0.068377715735702865;-0.003056164899703416 -0.43839533696543631 0.15106002047707873 -0.18470388159175863 0.18752515792527127 0.6569533157402937 0.13248279803277785 0.31111900927150737 0.2916724537225418 -0.095627353888476818 0.22930225119302677 0.10256776928480889 -0.018325171171236075 0.04964001714876147 -0.075618625705710124 0.152828575315858 0.31341746095117845 -0.24717134620401951 0.21314239572446972 0.019053544175378689 0.18312048591709457 0.052323101972702908 -0.19806422879653915 -0.17235126187296243 0.15335287758146132 0.49070457015473268 -0.0033820043672272513 -0.012293553268185313 0.20673553658061811 -0.1671437578290908 -0.070874677327878319 -0.13547121188710443 -0.22349871057040119 0.0090705611206443951 -0.27368916035095014 -0.46672767799148107 -0.31294057085907417 -0.38381988577531329 -0.012355518724820682 0.23332738510828127 -0.28192093907918825;-0.24580520275383122 0.1896117711572996 -0.066583069004059844 -0.53949672959635198 0.32152807653730681 -0.44216526448033955 -0.1017555105598105 0.19403632876070845 -0.24344630965119657 0.019780492037166655 0.074396426684395375 -0.063648992708646518 -0.061498753147217512 -0.28797824715148568 -0.12603464943726927 0.13153282641039615 0.18741662131577352 -0.33799368465231794 0.19565783383382757 0.30031923493841139 -0.20025404212363351 0.085803644471061952 0.041016014515710741 0.16019377813163416 0.25135599048917467 -0.32724411934360159 0.28976691607618543 0.26748883499181492 0.40013555904776527 0.076053495519399994 0.071116094077800715 0.06473324172692943 -0.32396032157588744 0.26016735842477973 0.37124587019610161 -0.35297103150617537 0.13407984378157228 0.38612776596239962 -0.25055628798592139 -0.086578346860914479 -0.45197142742168028;-0.14887726577410246 -0.38738184274649212 -0.31829279094396223 -0.1607036424560766 -0.10984523528493237 0.21120220221144878 0.044203978525708933 -0.29025951739123573 0.15322867710365454 -0.0033425437899232968 -0.00010228254576624685 0.07096786316357237 -0.39511938356867576 -0.39233526219793646 -0.1752744139505818 -0.42585776923043317 0.35711834730184755 0.15803483118639822 -0.23745464462138222 -0.36423938753921509 0.20771046525713663 0.13341618250460308 -0.1780060422276708 -0.10436253098524144 -0.19583115269561788 -0.70976963211777722 -0.14421609861458323 0.025001410640985548 0.077652573319840379 0.091756233313488186 0.34502000883821604 0.048554814624216264 -0.019359991500979046 0.39195847259852412 0.088404384401883043 0.25583594050151243 0.029683942677917401 -0.09431554760781298 -0.3249880188374068 0.55839175886393444 -0.22155211265233149;-0.36810901598411838 -0.58763336162721314 0.33751573897347087 0.28228398233691732 0.0057840094816066431 0.27726756169134031 -0.058364059338229399 -0.029334998233203128 0.23247926958695447 0.25688994312792945 0.031396320050530405 0.57774332100387626 0.56848245393447872 -0.025308248060620122 0.32425025625937892 -0.25667541684584622 -0.58728229161878931 -0.26882405552846 0.26108272996847531 0.35443265113992628 -0.29490040793784073 -0.082160393753338806 -0.55935339454878386 -0.2141646587927746 0.044213101560281867 0.044586300444937124 -0.056644934776385873 -0.40391553326182961 -0.39705175796479841 -0.18639040000356494 0.46231085788611159 0.042633257151429411 0.05562586454121074 -0.38108075382862916 -0.20551945235870756 0.39942343285323306 -0.28327612125461377 0.32236114460838861 0.69438282790339534 -0.069129086928932978 -0.049698310522632391;0.17396333392365224 -0.11608668747081412 0.17021746980590749 0.21105894453475552 0.17566821702423502 0.48440941974543239 0.39164915106430326 -0.12573279036030613 -0.30152945411292303 -0.10148980253545821 -0.34485019565145603 -0.25937085415920602 0.18839058127166985 0.19582242668737956 -0.52101166704213364 -0.40113740504604689 -0.0052803776371040919 0.43054945529659433 0.25298246952249415 -0.052003779082060705 -0.15227200223289938 0.10980535357150129 0.060063576860389635 0.53668150437706985 -0.089764289088307761 -0.018160389056874827 -0.32229691410077121 0.34206444562806154 -0.3271178040875341 -0.03735197813578537 0.24949260873783421 -0.19720439948289675 -0.59099000024277215 0.16467035495473178 -0.19145485933520992 -0.16775452268131219 -0.28677799634943318 0.25601757322859836 0.031724112949950416 0.063251236586238088 -0.028544617962082741;0.26532330343849431 -0.31054811858729664 -0.20603643526555881 0.008925711543117134 -0.4393745306461036 0.24563176010996648 -0.23102349749121565 -0.22902642405767523 -0.016450865365931794 0.034276517808818081 0.16520310798684856 0.40663308248666902 0.15108391641947502 -0.20730906698253765 0.042896608826437782 -0.096835249720889652 -0.19552155459956941 -0.079794100716457345 -0.31802915700063911 0.045069844737634146 0.50253281903054536 0.22025246897326345 0.042967687060876419 -0.045799311573045384 0.22542891696256126 0.23490610243971621 0.41807927724319655 0.055185196885545407 0.32041926919357788 -0.060841237218207694 0.11469939743802399 -0.12381695511962011 0.0508359343709038 0.23871423423217222 -0.12046518518837213 -0.34194103900172323 0.14694514399103917 -0.20687308101044438 0.35095731454715512 0.14511554920558206 0.091227028951978498;0.016237144397882403 -0.033558569935827641 -0.35949702998758293 -0.25821304201016443 0.43690671886013538 -0.0083725416557084934 0.38608200105728074 0.24823540704939354 -0.27761285037259287 -0.053764211134783822 -0.097182560013321442 0.10023206744829907 0.21114700873312908 -0.1806720572182734 -0.42941321503401114 0.15921327117778561 -0.38122572107266273 -0.038764515555617121 -0.35549309644624494 -0.22058585974067993 -0.19173009370276486 0.29475920416285856 0.070362321319325113 0.2041150294052845 0.30314095176427136 -0.13037402695727887 0.39283775948986283 -0.045064136065741611 0.3845821386073649 0.048194394809971113 0.17167771854692518 0.37021012471952958 0.046240674786865249 -0.3608923888621039 -0.31541671623861789 -0.29940963632002571 0.036120026096269055 0.088097450004794908 -0.14701084620609711 0.056567087822332184 -0.077355633709119714;-0.39546138697831246 -0.10858820240987878 0.078013320954005747 -0.28987226311868264 -0.49241471692772737 0.18600075027425733 0.22379316451617387 -0.24672347943315209 -0.085835851690190049 0.2354134747070826 -0.016305050177115657 -0.064046246668386542 -0.028653899991257527 0.39975079221694648 0.23651262724514277 -0.19764420267859684 0.16629079595713189 0.39866759477502256 -0.10562515576589711 -0.25067720640769625 0.35547827221274225 0.10458023760535187 -0.39387695986447485 0.33897465171853841 -0.29345118460058911 -0.23227766248963466 -0.10555212700442604 -0.11898662529075753 -0.35401789858668853 -0.21802185092626317 -0.16069226914069648 0.18355443214219092 0.3353092806731004 0.083406090399063146 0.38385151102947218 0.13394296543671186 -0.23853902426494075 -0.074655460540838145 -0.024521207456603307 0.29382347705328682 -0.32045362244157538;0.12278758811545372 -0.15192329088121156 0.1734471238250993 -0.02027477034612685 -0.080721614506288272 0.16119447079745133 0.018340001101022699 -0.13069362679925475 0.18049373088748769 0.048357415604772754 -0.27137356675096258 -0.041548007381742948 -0.39596914560172597 0.075418289348216955 -0.1082562772807356 -0.1849301843763691 0.099418814835140507 -0.053541018549615634 0.14016202918407675 0.21189498670138454 0.28864164608322063 -0.081549001197153262 0.22514887809656992 -0.31082728362662265 -0.32513095376249967 0.20495230148149021 -0.27080657809377784 0.17819241872677652 0.3053497932206497 -0.0051088318125119443 -0.36625970030107147 0.13666790213261862 -0.10428842955141311 0.10900685480017303 -0.25080298717654187 0.10665820487500474 0.094548705829936519 -0.072128632255877845 -0.50347854982299922 -0.015320050118273245 0.21368633405119633;-0.11072851989186493 0.078496675634080998 -0.38163776147717104 -0.18395027334615088 -0.35477563043288518 0.30423520807043486 0.38648267984196766 0.28478293448431274 0.26105177283077113 -0.52042477653503805 -0.35349322565856389 -0.015353657233690686 0.25526561395998321 0.19306206377876373 0.46344925525026531 -0.2783222201581585 0.29586603743113343 0.32492654168615059 0.36795562415441513 -0.10391683084581146 -0.28710267072378365 -0.35086612736757578 -0.089774208616070716 0.39788085908192872 0.2675114849496687 -0.2595296126965968 -0.0098086665854040626 -0.017995303399918779 0.26830975736136098 -0.20697811685502496 0.067089143441546623 -0.2305381368288727 0.55502226376263009 -0.024610227827096001 -0.17778769837363842 0.12056877353027282 -0.20861619172596299 -0.23815819854068357 -0.16216755097359253 0.030600927709613999 -0.13697494591717724;0.26317370610722957 -0.17503839249788111 0.090304918606216353 0.38435022559059828 0.0012199553588660636 0.63492349303386697 0.084881263525440662 -0.17795563558659128 -0.47791953648484947 0.07892607428770898 -0.36545152060911296 -0.054024158986660312 0.077624165588628613 0.25917311540852628 0.05288743585527296 -0.055599627335022619 -0.32493123759534748 -0.16122028187844256 -0.35419280727514985 -0.02070049123630624 0.4148835436514976 -0.39219077616509845 0.30515854672533554 0.54853341121083643 0.40732633986407951 -0.16201456904343683 -0.03623329539678509 -0.35603155096078454 -0.2747926339595983 -0.0026676158672111023 0.42205611446819502 -0.38314905706856467 0.17996582675949491 0.34121129966135477 -0.25327994390923969 -0.20221779398088519 0.062223063643805962 -0.30587631191822867 0.28714311224246997 -0.43320142980682669 0.31466535031327486;-0.38070920053784935 0.049175896924066327 -0.22887180590180115 -0.13787642803699002 -0.09594687409722398 -0.0819744696473024 0.22772879821626099 -0.40364813220550905 -0.16183543763688601 0.10661370245863755 0.4430350243766833 -0.21936338086204016 0.20417769556533946 -0.12453414134358896 0.25345791100973464 0.40484238148720908 -0.94324024704492404 -0.066008475553157128 0.17279762199925597 -0.28746202510584451 0.16789399580812231 0.20444913107850296 0.18981761672000172 0.037774669488472114 0.21041222623987618 -0.10139857880450798 0.10552389229776779 0.14584430425559128 0.12239758627681351 -0.11818132139584524 -0.13667570384307537 -0.29075094840757132 -0.31296331118744197 0.51750173007928957 0.20978936267241871 0.082708317078163188 -0.2818926954345255 0.14496923869427089 -0.77764211911705527 -0.24072537230687308 -0.38423348035351862;-0.30478534148813818 0.0018869963563822867 -0.19929736607917112 -0.26962406958063406 0.16991482550499426 0.125270580588875 -0.025745532207332538 -0.37909596281556512 0.080580083380585338 -0.027068938248595915 0.31601092001926756 0.0095278362848048685 -0.39341318758226734 -0.024425331908038556 0.31432810806929151 -0.10071528212004868 -0.30308277433179048 -0.0076253806757180763 0.088641625412683431 0.33869428591814055 0.22280902667585814 0.075326219068412928 0.15946945007182689 -0.0084628812601027018 0.51324013514438871 0.2546812727545264 0.19330081201028695 -0.4147554186111333 0.11614133765230278 0.18700437472278872 -0.4066002793519114 0.052523890181027107 -0.055848148569091302 0.17604361959535014 -0.0075029256485270885 -0.26001908776419319 -0.15586424716486014 -0.29973185366076965 0.058758734964577508 0.32897317210165944 -0.2355380471787541;0.0092386672100851566 0.083407829805060368 -0.1530368422859027 -0.013474546856130054 0.41636964300086676 0.20098973647679774 -0.18721270290291908 0.22243962450933391 0.3257556258475634 0.38776999422946296 0.12535321070664945 -0.23160210986726135 -0.4053709408232764 -0.33729729749560283 -0.062297568937244717 -0.044352243785937447 -0.27011523827390593 0.38752894147620537 -0.21539126179393536 0.25726827793437596 0.060266035955101001 0.13123642153204992 0.19450747873236315 -0.15581750560242918 0.24008364014577555 -0.0016671018828440694 -0.23288667216902986 0.21292462807003468 -0.11562339194160449 -0.10618335369615234 0.026714306206246555 -0.051639494967268169 -0.10480241244234699 -0.17506594823911314 -0.33210900336072247 -0.38384580550227904 -0.11460072585796187 -0.31489798887624576 0.034205869425982832 0.22078362890862913 0.067210618435392236;0.21585312488171401 -0.18944794558636796 0.34887710783452419 -0.17966110201597091 0.072799765417185094 0.057327870012007252 0.25035866332037859 -0.26627399058862317 0.37540304010897924 -0.024776616697901085 0.082865902549731515 0.13766787223784133 0.080242458506425918 0.21908332446517104 0.26635331381360061 0.3202471547673682 -0.28958492505235039 0.29581489966905666 0.19899009914232044 0.10871635667202745 -0.27753329427094547 0.30828834528198795 0.0059805161068677733 0.082167969737577964 0.13742701399012508 0.1647622453332338 -0.0062609460167235226 0.067843938836097406 0.16145320097198382 -0.031382785200783206 -0.14911128579348654 0.23440343926801027 0.11683546078912241 0.18584688858467227 0.1647902774923147 0.01676910402806225 0.18642616823968586 -0.14129709876164831 -0.14742235138953549 0.16230545446033523 -0.10316053863300136;0.35769838886215027 0.32295967957719945 0.4103667295061092 -0.21100069516924838 0.32372154882574972 -0.16264652500976964 -0.13440602686034986 0.044843829579961372 -0.14832752088072149 0.066964671000379367 0.028555414608120937 0.3727640581604022 -0.042132812966072956 0.030150452415198727 -0.077203088748077145 0.07846357918966855 -0.21843427050879369 0.01498869567635305 0.056089585662698525 -0.35920568117998997 -0.24359135211897021 -0.18215799311893294 -0.27569753880580117 0.090256741346200486 -0.21045009518334098 -0.17705025262524177 -0.27254898099843722 0.20282464314592563 -0.27569695620792151 -0.20083400781122859 0.26659610628595898 0.24504285136634024 0.24308919098308227 0.36892767785720654 -0.40616388595917186 -0.062729607607015223 0.037149653612019426 0.32632582314314612 0.26325446887581505 -0.20269807207597657 0.12652358316653348;-0.53017011726890839 -0.10768874367198095 0.20108880027426349 -0.24998435954753245 0.20170266272825718 -0.28294445053252559 -0.27907686364115186 0.0051252081918322532 -0.096846868358260563 0.39291618967422393 0.26198687375576457 -0.017076445143890586 -0.084528410742485419 0.23276511741265546 -0.11786454515035034 -0.12613704167979817 0.67245776611232899 -0.28295572648424228 -0.081374771039483929 0.15470822728067876 0.5344124050400364 -0.089567854179192927 -0.006302280729194051 0.21868836028870692 -0.019203712864201597 0.074513184364402685 -0.35886592721550936 0.25656008170204414 -0.35474603757740536 -0.0046604888593663948 -0.35979305335300149 -0.35104194655539467 0.029761721314243889 0.39584763105376258 0.2523196180196024 -0.096826576350361709 0.26320845924542219 0.10250624741239546 0.054086387889118737 0.12178680929525774 0.32269651400584115;0.28036940522367232 0.4143793233292925 0.074792066096925763 0.27153632215417456 -0.12702949157135904 -0.31850150351979956 0.12177743601020402 0.14875777844009394 0.32223058498963569 0.11857247444795038 0.18100911417692764 0.36407687823638668 -0.15506981436416079 0.092677545037248746 0.29416442127450276 -0.04298849363365196 -0.13029109015606316 0.1574730204222462 -0.16693252885896634 -0.30948195084522118 -0.0036441423046109419 -0.44026959589018239 -0.17923026563889002 -0.19824024750476094 0.4619029658940178 -0.21767986209219103 0.065887192624024093 0.34224539681283017 -0.25715190953920836 0.095207977001644559 0.23689159209822444 -0.38940416452656312 0.2502231517321537 -0.057367536445646933 0.19910181962304627 0.37300752090137895 0.25551368082419695 0.30819946526788167 -0.06994617184574882 0.051650630102333867 -0.13289506590096881;-0.40558810090049185 -0.59693359830260018 -0.37008765466199561 -0.10781227110741481 0.082168162729910024 -0.18883089161833586 0.22847386087089874 0.32282394945022397 0.13716713463135682 -0.20938875572187346 0.027178393709680178 0.018700022224315761 0.18490202275818307 0.023910372687397728 -0.23532123854341364 -0.29949856906857975 0.14582404690646777 0.35645066021162597 0.22986231737225499 -0.39030798995766819 -0.41046764338921171 0.40511822359134714 -0.1328400871582352 -0.1379141807220014 0.105939500711525 0.2215313609424677 0.057855516187619839 -0.40952077861891673 -0.30710497574420392 -0.37288659956073478 0.091284817198447735 -0.1532748018255346 0.15142156153264183 0.12367660407061229 0.2967219060221446 0.08514576525689016 0.1259382628689629 0.00049062019965249309 0.1044862642786572 -0.275525922371675 0.024606746814731385;-0.38926632906546049 -0.51613375943131312 0.16613974561286227 0.39280882605636736 -0.1129119978974566 0.024474104287971872 -0.027791433372601378 0.29246177492166425 -0.52140792214383613 -0.17116206150411342 -0.32403420798983978 -0.24135576859166785 0.13125015115472649 -0.13816233572906281 -0.10675257601546534 0.10623639827782688 -0.14808092826714417 -0.050354187302346622 -0.0065882869290751333 -0.030373151183517626 -0.17507274863972958 0.36431063577433298 -0.098661751144660692 -0.13926008087946334 -0.079720524952275246 0.16290595604484695 -0.012802752329968522 -0.0078928863248198308 0.39640952722831924 0.28305434034655685 -0.3777265453012344 -0.007196690664817984 -0.27042492269846985 -0.033330987734792795 -0.25637503784785515 -0.29317088570109817 -0.25366533164120331 0.10537328521515119 -0.4819224683887483 0.0042417927682611972 0.058393832322883171;-0.20940463264761824 -0.33720828677278281 -0.24251802405496373 0.47485839839359972 -0.26162026811672034 -0.30395581848072961 0.221147544682538 -0.28128423199074187 0.18938755931463269 0.44457758510583112 0.35853376962199651 0.13646367820628669 -0.33731666102184571 -0.26965679989695734 -0.016160237067807011 -0.026663435114359653 -0.049448050124179355 0.65935528742873828 0.090880858039986023 -0.58831317224579671 -0.250033864968358 0.29495044666413767 0.11105999491972723 0.24343040326913765 -0.39688742113113123 -0.42181169945524716 -0.31301435218990081 0.15002081714298879 -0.0031500084756858268 0.29333244086332594 0.13887005410510661 -0.37034801731530853 -0.55703469019226981 0.014633371359229281 -0.057098272317078418 0.30080789668113905 0.49326386591195304 0.0044604184412028146 0.35238305860544827 -0.14470797201529748 -0.3493651141400152;-0.13506101819128646 -0.16181805374373359 -0.31074385121688441 -0.017637922856226073 0.20920071375772512 0.15169677922755889 -0.40754150830886948 -0.23020406527372206 0.33215167226782238 -0.32336574637302684 -0.29903348246521083 -0.47102274192724225 0.3718995913375322 0.14223119598212539 -0.39177388094002563 -0.052388394541542455 0.10935226146256008 0.02396909520180953 -0.43083623468756554 -0.017922394374565463 -0.12946591422446127 -0.073187725867844222 -0.05877415776320298 -0.29330819943120451 0.076291527569081849 -0.012798943279467588 -0.22344908258704343 -0.10579216106135086 0.234683635761258 -0.25616081894102843 0.41134599948001188 0.1559267524321096 -0.26935252865549092 0.18441218872692519 -0.28530079146319298 -0.0326475155167152 -0.013571887393998517 0.26437507717548153 -0.090934849454161679 0.28281729923012366 0.26818149509969447;0.26678849329826471 -0.079205200927804115 -0.19608318228404559 0.20284075212282035 0.45998599759753606 -0.28757294970422065 0.1243292049921105 0.43605584038091766 -0.018765159157050307 -0.32149567322893857 0.2919880375764079 -0.011227834967995409 -0.010726415804193083 0.36546058453667196 -0.30372476051022701 -0.097924965783127468 -0.17900852208254833 -0.35219715346379615 -0.38448444469245746 -0.10421763753954312 -0.28235791305624869 -0.09096877264414277 -0.048281871820986505 -0.65729021098980311 0.36625012576010596 0.14645801550498094 -0.23688149011210685 -0.00068251431719387919 0.36175533068285926 -0.22643865866658791 -0.31629085636730303 0.1750753227670668 -0.16980344315675228 0.18314842628865824 0.36777036660690565 -0.32805685337587004 0.077429196658196142 0.20759670616143663 0.11384756687599214 0.18051562919044845 -0.30567730389267744;0.47354456093298403 -0.23786210517301834 0.20119347887100467 -0.16063057264389585 -0.15839062588407374 0.51348979197420463 -0.079440597719105804 -0.21315612457329774 -0.017329688466720807 -0.1840584967730424 0.22450062065678747 -0.0080744025748080029 -0.12281399529253872 0.24617946033987059 -0.34066899805679107 -0.43612530155332613 -0.048125471352229915 -0.25832769497019692 -0.02323796471068525 0.18201505775264659 -0.22028613156235427 -0.1402340797150676 -0.22685740942435789 0.48475360415771085 0.052008566959033782 0.17929340675079586 0.28195172950566361 -0.15549508578690829 -0.36143433986359946 -0.019186391778895393 -0.26966095214859259 0.22633313076682496 -0.017733771414108548 -0.054956463498287741 0.04176790085277482 0.029348252373566162 -0.33516890375796687 -0.013628855555099226 0.017695349093392244 -0.08809151404704782 0.024131574719061594;0.14560880388664077 -0.46418267582955941 0.097785241813888354 0.22568930150657027 0.18966890737394859 0.27824573111184936 0.50656493822913384 0.18784543217658883 0.096332567110078857 -0.41388475848354433 -0.36428664672854372 0.28759241457198126 -0.19904709311648133 0.054377034993928909 -0.13098621513614231 0.23481406234098495 0.10749351958312325 0.2334848662478147 0.29976911309420201 0.081255379612888118 0.1256783240997979 0.38933417093560585 0.19980879024605988 0.26043722131976621 0.40611703216909284 -0.24582630778729966 0.15212812432248415 0.061095870637354721 0.15868634434526194 0.62582641836775921 -0.32240372752975577 0.13847470506961776 0.04327597199763869 -0.12195890203422205 0.22356355785329807 -0.2604143500421538 -0.38553267111737155 0.21152113183548213 -0.039484533270054974 -0.30717378368892856 -0.0097758751315034191;0.44241096036482086 0.20428535362098482 -0.17941800493310509 -0.42901747192236589 -0.10260808708945215 0.2125288952673593 0.030166412069423044 -0.049624042488961205 -0.16644639464256317 0.25379728346667935 -0.037471657145138733 -0.27616482643503065 0.22141233824755033 0.11280039309019156 -0.068713557006992734 0.16745907002868027 -0.0680169467148318 0.16212010281140948 -0.15604533889190053 0.065011985787652493 -0.39087280735799035 -0.31247035284824937 -0.050246331554285248 -0.11322880940248997 -0.21964004546474863 0.23271451878399935 0.30636213241655663 -0.1806129997437326 0.29309919865561068 0.25362723276012006 -0.31756103820592974 0.52735531939328251 0.29536615490456297 0.33248625789585085 -0.16335736675044701 0.14903771732247745 -0.12683233102805394 0.44934404497298963 0.21267392843139782 -0.31177861412660224 -0.17579062444907792;-0.44561081941691827 0.18573933917803648 0.34329770640065754 0.10526714711342015 -0.0046226705375540288 -0.031395880026043967 0.6115532506912158 -0.5088335722374363 -0.20954241166768575 0.13227208429286949 -0.065727792174087835 -0.24715648275532448 -0.085727927592795822 -0.28143639474982596 -0.0081721343758843507 -0.11295850164739338 -0.14371362762543535 -0.38482573935432823 0.047968709780492842 0.57084410126362717 0.42442533996560172 0.59518793643491441 0.085477517318785112 0.019707924590367201 -0.5396853207919905 0.13652910840390792 -0.14845610214848554 0.1095771980582904 -0.014945245189462419 -0.20489493626105998 0.28469484340858747 -0.11932740549160814 -0.23516721600871821 -0.071030047041611435 0.168955356934156 -0.003435798821793234 0.50460237750040071 0.020723598391300516 -0.014839134162083623 -0.034387589114746528 0.15402151162444408;-0.18786780028835126 0.20312770057019017 -0.069059751094236316 -0.15692433602981845 0.35229221570291602 0.12074091877801439 -0.1986780476331573 0.30997245888010783 -0.014027955951961674 -0.064244593766214136 0.25275723824291552 0.14418506665350575 -0.17656912919027803 -0.02167723818199753 -0.029345876131591092 0.21597127114619105 -0.15799646277849733 0.0033938404255216556 0.28329958945269618 0.029859626241226872 0.13972190207864504 0.21315865635082495 -0.34688003073868601 0.089768410651564032 0.18295046812448534 -0.095087063318512396 -0.52248612180246023 -0.30966188668291028 -0.18519911519922488 0.24952398906887016 0.38537939079183708 0.20926783264447432 -0.041564270354468233 -0.31334599988679923 -0.12716536990133812 0.13254241517894169 -0.41882935513050357 0.33323497890282783 0.45218684484425947 0.052322433313808328 0.37230268814733553;-0.22715710000902894 0.12700130305336427 0.24048164084009191 0.2166517382626158 -0.38978860530680076 -0.14863302605063708 0.34451933604353124 0.16092658476596478 0.039036021002955265 0.38424489944457346 -0.27528684647567936 0.44196811064907793 0.28523316065044946 -0.42784642629057235 -0.24375549088842163 -0.31539615819288713 -0.29445801069417554 0.15854231871026975 -0.040360718008332262 0.05476135770341832 -0.25029264639739829 0.21010130437681832 -0.10293240152710054 0.13066846977799201 0.26057746447020858 0.44601412056181616 -0.11020811792547186 -0.011372464238906433 -0.0062022218498959322 -0.0063515108635162892 0.12870425461811358 0.066113931972867995 0.10383488565465698 -0.17119781882319579 0.0014537932136871028 -0.043069762993305075 -0.12309648203846299 0.47627272872248844 -0.27242146415922119 -0.050436685574783417 0.14185943540496079;-0.37495232363798603 0.25296342064989236 0.12540868533701152 0.14674094618568972 -0.41369894559464637 -0.076003558896417578 -0.19656939133426174 0.02529400807263248 -0.27795943983226429 0.19984667693349484 0.16091843759088514 0.45037926601065859 0.026420577273980884 0.34506436100526555 -0.38229196666930138 -0.35220184402028831 -0.16553756839744449 0.16967728823575912 -0.097846864303348643 -0.050741041868869387 -0.38996408799615273 0.13475714665097166 -0.1635593574407235 -0.059240858668814546 0.120471092493747 0.023417074287546361 -0.33420439149091391 -0.12946594035780307 -0.18760370276359886 -0.34352006474022584 -0.3169512462455899 -0.23802926948946743 -0.014656838753126029 -0.10091884926111565 0.10572915325151422 0.37539808716979201 0.096425891162993757 -0.37809173039597543 0.22507099330085645 0.1795094291988539 -0.15005814367981357;0.19227490015449369 0.15637228754451193 -0.12910945611742003 -0.270281228174584 -0.20050644075412621 -0.015752723143052691 -0.033921059524367407 -0.044919484077325822 -0.46510594928995685 -0.10204005080796212 -0.23278564357087861 -0.15730974780617948 -0.13606267268395333 -0.32651750810510816 0.2841798159291003 -0.32643368276152662 -0.46581865090089886 -0.080321296277623702 -0.37517664146087154 0.17143463412566051 0.51063273363329376 0.56864885951683963 -0.59708894660188605 -0.42154080384930148 0.10251359113902252 0.014800469220301385 0.034033839798892927 -0.031299396011951801 0.17766258266012902 0.016695677553409231 -0.13795668622973836 -0.47362050297891573 -0.021253765966060871 0.1552648394752488 -0.14608939314778036 -0.21366744210550703 0.52506103902437773 -0.20626813901526744 0.39788963279511075 0.097809103888235202 -0.46114970713408665;-0.12150815909943402 -0.24991314217255181 0.16948751512346527 0.200745235236786 0.052795327456403258 -0.40589743713703019 0.2025150637741118 0.2146712236028924 -0.074308723789804132 -0.17775074894611531 0.13011959512585422 -0.20621314200289989 0.39941628545127461 0.23518384429529379 0.19019357866059894 -0.043693001995943642 -0.3192784557761521 0.34482890383939857 -0.28874469748623849 0.013834276543765546 0.23390536695708308 -0.20788422205466847 -0.076077231700540301 0.35221237572044567 0.25417532483484356 -0.24229391288314001 0.084345627023974162 -0.30428310832945071 -0.21646531963407886 0.17559195315571363 -0.25695069019975791 0.25740595754317525 -0.34213035377105205 -0.23830191101174059 -0.17775965247063122 0.27236228569538301 0.055115090245153583 0.26703211684212191 0.26025661090805929 0.14951823811677104 -0.30457849901402073;-0.32367448398639248 0.016820759757568922 -0.18291688586318405 0.036434558763783702 0.16197392530302951 -0.16519001393553284 -0.30416342723776812 0.1535012194759616 0.19550274994503497 0.20552027616528293 0.097984128584444552 -0.12053394370293731 0.15580324013168204 0.1447645041345543 0.2628880824153127 -0.554311720190382 -0.12473387314970033 0.11699569803317153 0.48817703103977844 -0.099154407716647602 0.17862939003146761 0.44546065422070452 -0.15970114054562842 -0.022306992768910395 -0.55882984448549955 -0.10723731453291954 -0.091456027483249741 0.21640216865262202 0.2824810024210056 -0.035534316145052487 -0.26662623685665909 0.25313481834404628 -0.28165404944140954 0.17108865425750019 -0.054476892606538624 -0.19973559278263894 0.32281363255570922 0.25990522729183352 -0.14243977191533941 0.14117649585514624 -0.043308567719851358;0.0050927254148390253 -0.14426414273892002 0.25328413450436893 -0.16420285289614667 -0.14707875419034547 -0.14053313529699107 -0.1245656486235998 0.029925595591507703 -0.017216030194999704 -0.36144194001931623 -0.082518091653339301 -0.1531012804448694 -0.01985870855948095 0.22745837035806712 0.006031576268482353 -0.38407957789736924 0.059835131626028396 -0.01884875116748699 -0.34535470784079858 -0.25190723505993778 0.26207761130215035 0.041429908290055315 -0.39938175449551383 -0.58957908204935217 0.067275213643621004 0.37228770977982967 0.28727853218131172 0.3148988994581568 -0.21270613639105684 0.39687233366459962 -0.029458487662187956 -0.15647234386155628 -0.42593634436512995 0.19639208760746038 0.36378802307920943 -0.0073420914841359642 0.43963699477761942 -0.24125682659424239 0.2821887335870954 -0.10878104949520914 -0.073075878229363012;0.24005164564383066 -0.11836865694349052 0.1764244632981545 -0.064429479090103409 0.61423636793864167 0.17811013585436095 -0.16243720632717193 -0.14264793296463238 -0.016577277050578675 -0.026151271855100071 0.22769428382096754 -0.20791281886360977 0.18714037273067796 -0.22346012986868249 0.016729073540847211 -0.060360749078310259 -0.36836519229293141 -0.078669825393525863 -0.41121101050754744 -0.13593072675047671 -0.26524779492338108 -0.27630590014510376 0.35607125693419078 0.091659413892170222 0.10051872543816358 -0.11127429488421335 -0.04547530385440568 0.29321250791420939 -0.10684440190056665 -0.078093420717313899 -0.33374442129983717 0.47403960599215111 -0.057231419670829523 0.28797537835633608 -0.2832457810834898 0.15991997424364526 -0.06307702775215529 -0.02753625668669895 -0.43969069059573274 -0.35461441554458667 0.18424148768237036;0.032725523930327079 0.27841970597549587 -0.059331167982567309 -0.1647294623258499 0.26984302952435407 0.54857958955844877 -0.1522641476210434 -0.084545019145344194 0.11487537333177178 0.070881352077184073 0.084062608328666202 -0.15317025343234475 0.0056918507708564881 0.2397105471207456 0.10263940432249709 0.14625119474493997 0.24783642481049409 -0.21626628431543815 0.11652018675075328 0.03304353175923367 0.029778658523106204 -0.45102923746816825 -0.21597159829125268 -0.33755562879887313 0.48861321833010751 -0.37832235103073736 -0.33775150934843523 -0.086690951789087117 -0.22724107256708273 -0.10710623165537378 0.089168430003016483 -0.46273498719453166 0.28173882405496731 -0.29790364683563392 -0.081193397688788999 -0.11864418736977181 -0.098049786692938845 -0.26020711468176705 0.20896890066029905 0.34464204493935069 0.22634317776463489;0.17011782101233114 -0.36985851950664872 0.24921681351624614 -0.08534448302260908 -0.17503767578490351 -0.19930428179474219 -0.29125603790633514 0.55817576654850054 -0.2427707813562171 0.20173328985853489 0.047462289571818445 -0.085931950488691802 0.14234113908140167 0.18278352485357025 -0.55999915432676339 0.42005186776794884 -0.16826192138531193 0.38606297051022609 0.16835262774130011 0.71958643087702667 -0.45384257394778382 -0.2691974626736704 0.24400437647902842 -0.14789546680960974 -0.12471480124173062 -0.14570416263405397 0.19471772072871546 0.29460681486178009 -0.14000266787468041 0.30854206839501047 0.15487287221427576 -0.2496380770943438 -0.067134124968578596 0.18231266624539064 -0.047576464237680451 -0.43381232784549978 -0.15679250709553777 -0.0079959361133228202 -0.31494724603854629 -0.22794155080748241 -0.055305242209164968;-0.44717751299586833 -0.15375937148503305 -0.36502234878361167 0.31040406458784808 0.014616321492302433 -0.13326724483344565 -0.090288111287099598 -0.083747544969177329 -0.17456555053702011 0.38007850614222466 -0.36000445043240886 0.22648547096096469 -0.13857382852951222 -0.18515988271273301 -0.32643742924913072 0.1698722409674609 -0.10130223300480429 0.38817490229906138 -0.37142322233912012 -0.32807327891594501 -0.2217299673042849 -0.014532778159879207 0.39611323837749612 0.36396186304409328 0.26301203958368397 -0.061461075737120431 0.49509513699992103 -0.086692558859928173 0.53128080733395511 -0.17791707209490981 0.27545442156774547 0.41711896343429572 -0.59315470774162327 0.27367942212887086 -0.21755218061046586 0.36550558981395781 -0.52151289424071978 -0.099137455090098664 0.016216802452327744 0.035873558348476338 0.15787417881633706;0.11294940329712443 0.10883983400751375 -0.23686258379145164 -0.21313901488926534 -0.023685029859850541 0.010055674887874275 0.067057268947035481 -0.05279210770859822 -0.19061325925476302 0.031424913566126797 -0.33621466742496309 -0.049625059429230643 0.082216130801477452 -0.23308534292085165 0.16386341794023709 0.014109560319892996 0.22106416667598239 0.31470955533451295 -0.43133160464188364 -0.11670067755696335 0.23550678005681891 0.076157409827510153 -0.1375694420711962 -0.16779121408366787 0.17988193313594847 -0.087093087193164331 -0.26206708077571095 0.13470689071785483 -0.20355674257234735 0.17715570816818393 -0.25201704755027698 -0.12516187630494713 -0.22840926152557098 0.42141971587408122 -0.013525562074769364 0.29137829772948382 -0.22184934184837793 0.17030072352699582 0.11943685967607121 -0.070263438101561687 0.090093062248264272;0.43888492789469119 -0.49885820431206757 0.15817242932590977 0.44738089326363639 -0.30553090805281918 -0.10705114426889274 -0.029133979429582423 -0.012629231281230221 0.11227633321969485 -0.089368106372934103 -0.20887960412164291 0.19268416296039811 0.22728773279499107 0.17245832892244192 -0.22715618458157397 -0.41699083655254926 -0.2566688547140234 0.14105806956999561 0.11198434871132584 -0.18975385731901664 0.35771452006483578 -0.30335608087180815 -0.18981628232215564 -0.13866812493905184 0.26501016379548181 -0.094544948305605933 0.065637883034817268 -0.10948861062629367 0.35809528262171636 0.41708096044582965 0.11513583593330499 0.066642078664580801 0.27437129670980459 0.024518097589609274 0.16686316422747499 -0.13103626267035745 0.048542371053069078 -0.096354276102712841 0.025890936628324531 0.30404389243724012 -0.018694671779135062;-0.25546233240856353 0.17381837522849616 0.24821098058450616 -0.16761006051095242 0.12903681115446261 0.50384241530762863 -0.18012150337602945 -0.18776370787985447 -0.069392157887053482 0.35151618551449271 0.12639631022973188 0.11261078529585339 0.066437227873249224 0.061782791988915231 -0.020792711873015977 0.11906871795400058 -0.2192047228424642 0.091224922493362587 0.3455959038216469 0.28713239586202188 -0.071694496035344779 0.24256181260716025 0.18317478739806875 -0.079508453273646709 0.038495457205726953 -0.26842953282580168 -0.39181574078249526 -0.36451313721148171 -0.12879524203948362 -0.2186293087027936 0.10095025495795625 0.0092495045021881266 -0.17558486607273985 0.075112623141345453 -0.13994630428090063 -0.035677496283893204 -0.090545827775315404 0.12543046950537243 0.085910440437404936 -0.37736958830438888 -0.067217929073256757;0.3598938555239824 -0.13409517570621468 -0.0031601756433559782 0.21303010740601849 0.076603664248393627 -0.30435651176963691 0.13958864507409549 -0.13207464288577567 0.2160722543104068 0.061459622451859777 0.43110572096444905 0.12739016625252272 -0.10997329670476742 0.32648887682443473 0.25106879755264166 0.16172576600355887 -0.19533439455937407 -0.20052362762949089 -0.11939848325631172 0.014526672058081317 -0.46550687422587811 -0.043435756644850387 -0.09173569332454258 -0.24359997505773628 -0.37440048703283246 -0.29882766220468066 0.38172103764091986 -0.28828142240323279 -0.014479336288997609 0.38934917940804059 -0.26701212440512817 -0.092907078752038089 0.15704575338283733 -0.40030162346443993 -0.41387173679528994 -0.32801782015247044 -0.050900680416500498 0.23966262748389536 0.49564859092979313 -0.075033754643886313 0.54395666488119709;-0.28253935982330536 0.42150835453209368 -0.058575866142792837 -0.26492226857595191 0.21998565225037173 0.23210025093718878 -0.014309217766798114 -0.054266279507900375 0.19771299317427507 0.13481052386530243 0.3563313556521891 -0.091094497718460371 -0.2979983063589095 0.093506589102171245 -0.14471807680880394 0.28001812152635674 0.20969353417598852 0.068286566086831479 0.0336330729990581 0.13268355830369047 -0.27571098257072185 0.22271803583210528 -0.12002527200555221 0.11523708821954602 0.086962580093321112 0.0028947815839215005 0.37714853975321533 -0.10126705563051022 -0.23422066876549857 0.30261525574021186 -0.35183366986687786 -0.26510826520662217 -0.22993334544782082 -0.20228723166089807 0.3147067555251043 -0.085849295598749958 -0.66735803282479822 0.18563114233091896 -0.37359489769610266 -0.49270417880767237 -0.43204595732085044;0.34734595256009815 -0.066997082229132379 -0.18477622569226426 -0.14653709228816059 0.11391022741046275 0.38426273516639153 0.019506047783419037 0.11424437881206796 -0.2644468962926646 0.026232280825781558 -0.082325163202086341 -0.24413321477977323 0.017053194775989509 0.19438605141379972 -0.12492088150894597 0.021178669174039089 0.0013173124931514183 -0.085962025929803884 -0.38538330975479146 0.23602783447669501 -0.083391705140995309 0.19703049915912491 0.51875621331621424 -0.41298130044878606 0.21873500891018438 -0.097009647467076326 0.13179179510265035 -0.035242563886483808 0.38141846752554648 -0.43617028406360447 0.210429037329604 0.11661110021687181 -0.37310913567091697 -0.22551233641684562 0.18999253882961456 -0.16592688276556103 0.50754615366577316 -0.27311460497410728 0.075946762162065348 0.21555638138083452 -0.31364402793006568;-0.076180669840400311 0.053359299974560501 -0.011952008454878817 -0.24692670766024097 0.051320574251155132 -0.16458782731843916 -0.1781228741727387 0.15790616370806149 0.11085878752084602 0.2792675153671294 -0.038371766531991883 0.13708737702666862 0.19195421139479094 -0.18788323578929703 0.12291988887691978 0.17317156561756564 -0.12939670497589723 0.10323109364098336 0.35620836391081678 0.28978452762198509 0.097970965188600032 0.085572853335878565 -0.0084232795402580333 -0.10995260152677945 -0.42005810114322434 -0.18726868664308632 0.22253289051102032 -0.23274823648808493 -0.20974126226989265 -0.14648209050421526 0.13490683976077444 0.090628705643211085 0.081781187800923555 -0.3187441505669652 -0.04381333071429961 -0.22536250052419871 -0.27688860609069527 0.0058077810778588215 -0.37424171419184693 0.033039452997876924 -0.22992574320277243;0.48539130484185106 -0.19960590939278111 0.064762627070843515 -0.06167230084192387 0.41846941975338198 -0.21683869339790676 0.095226631054227892 -0.030319964657220842 -0.0018188897903752884 0.10710381059091142 -0.22472593622441689 0.22785928264348909 -0.091259414273017259 -0.30704580188368125 -0.68528351956292766 -0.37281225658189915 -0.45541091541293471 0.068455728673475297 0.38513144060852561 -0.10122991207812304 0.41369992768087727 0.42871360927528818 -0.01745959725038182 -0.012447839119915899 0.62294179755651635 -0.013822836672762469 -0.037331967035537962 -0.13542836504593345 0.17117213889949939 -0.14456187643775528 0.084073048262574127 0.10459070345318801 -0.15579422031915185 -0.33522346745004811 -0.35495666621834149 0.26662288785059368 0.25465041668836913 0.0027167435207680387 -0.2371849097680202 0.023719198094243402 0.47200617534430911;-0.073951381101237029 0.13188845622324233 -0.19222555271417233 -0.16179842028691133 0.14128892996623918 0.27532066399648913 0.058593020187076204 -0.16867680139154384 0.085219549160062955 -0.13056566509269424 0.05173686294040597 0.1097634445409784 -0.40647844631858637 0.28984750040616952 0.21718674439005836 -0.15386185344784117 -0.016860864069375189 -0.32076763264733182 0.062998336791562526 -0.18483437238215486 -0.2769366769588868 0.25406186182917095 -0.23147559105350182 0.23336727202475901 0.123517717502914 -0.29416020908157486 -0.066012156261519753 0.32095030639260236 -0.052347755456154069 0.20804093534127052 0.088594736450887279 0.07444100494932758 0.00038979541468476056 0.21976711018847503 0.47681075876746787 -0.028823185007409085 0.31862601203023483 -0.21387262998793916 -0.082741169283026078 0.15784093929749332 0.0049940519591068983;0.082659083828713564 -0.31348165154948338 0.30946668573248604 -0.0055145527283569258 0.13736166589413462 -0.11914411938384743 0.16632577764814685 0.34503816688438482 0.007819000710002022 -0.31049059645039828 0.055061995832392595 0.096076027917101098 0.17088157075706487 -0.16369682727001822 -0.043789367160738522 0.016565357250688181 -0.3768138566358849 -0.14130826017743722 -0.24968449015048524 0.14439260158038467 0.23655256976753877 -0.10943780753738236 0.20460890140101881 0.10983233237962597 0.02276935912903643 -0.01352716513600408 -0.33425028073174418 0.36077886372895723 -0.019338271847344834 -0.25408745965869639 0.12863271072386911 -0.28358018246837297 -0.23060777499816484 0.085378229280778387 -0.35445391673714727 -0.066424859884052681 0.21360885580547878 -0.16941656609266548 -0.011569319820339001 -0.19188148939884181 -0.025918196083283447;-0.24518165298620145 0.13815389240587408 0.18732665846088026 0.38707202905630544 -0.29547079207117694 0.024994844550880475 -0.37280892710990765 -0.12437095310403928 0.16959852244343115 0.22201787204447654 -0.22860061380028376 -0.27523235767284243 -0.30222194068824665 -0.23532755033061381 -0.37625047322169936 0.1575787667912649 0.039224911519654057 -0.26983868999841865 -0.1699082125943753 -0.50356491325940955 -0.35322086543985476 -0.014926104638975335 -0.28592534650783796 -0.18912518711318416 0.24184890808975879 -0.18376912758034838 0.074959496392969283 0.40901667245052947 0.036002865216241561 0.064542990252033361 -0.023448667061987435 -0.25295436885413158 -0.20459228111019084 -0.17376017391213447 -0.21552236313225651 -0.22338992145074521 -0.022123895750116449 -0.17761320789489607 -0.12029184341277467 0.07478050919400718 -0.1741508570748439;-0.36765676058360081 -0.38578205813692662 -0.0070687729913352648 0.054542924377752627 0.14158028219802166 0.01252127845613572 -0.27334429408453759 0.46823136839316004 -0.12178849503440577 0.10882867991080498 -0.1692117784946397 -0.06325542854960127 -0.33866979698791155 0.36306791620719031 -0.45470874281027135 -0.070896631945774918 -0.059150272610135043 -0.39034941648467253 -0.37997240908145358 -0.3389786908989067 0.03503392524686641 0.28911024011559927 0.051044835021342265 0.033844610748621703 -0.18843032036504997 0.084190950295076769 0.62229174351202421 0.13348252484894776 0.26450732765499446 0.27320928319922977 -0.15596927995306833 0.011265234153467788 0.23768880666790518 -0.31986409605276278 0.030901305471928819 -0.010977476972763864 0.36057265300951219 -0.015793750336463339 0.34555428569596164 0.061077341936056413 0.18328849834707697;0.079841483942049166 -0.21219683848099377 -0.057800523162422568 0.39883521837562924 -0.38802001072784292 0.18040601433497802 0.16013983281199487 -0.24310562811840511 0.41236973071085553 -0.083378716174430656 0.16917346786670048 0.17735336227794402 0.1609691857619224 0.052958052001405451 0.33746614115218676 0.136004554293261 0.15580996692096591 0.24148561153455742 -0.024497741090623817 0.35129247864939811 0.18079158356027325 0.22626933902624372 0.031890898956477585 0.012613070210566834 0.078779517461538509 -0.0054802385793943495 0.063510727959586927 -0.12715489117963466 -0.22447295271609763 -0.29013857536349652 0.23560088150392935 0.30829905640324079 0.024365465899811645 0.35208080577865347 0.071703550997130439 0.29674751356677692 0.023185417840938402 0.25770525791464904 0.28737478478837147 -0.32994214853371256 -0.31542783735923979;-0.36374443606329687 0.077650725800243153 -0.39154978926999601 -0.15232498332655262 -0.074877502107710631 -0.2459928053301676 -0.063542482182589705 -0.11506590685546136 0.2477376184958687 0.13072232929082075 0.044832030786675463 0.25890933638718994 -0.1061753290284024 -0.060621703766836475 -0.047219147556323934 -0.23356512003458205 0.3721852845807882 -0.04944998330882807 0.09938223299095332 -0.43391525632964639 -0.048239532300719104 -0.38589685208433194 0.12681280813546389 0.0044638458143399888 -0.1807761082364063 -0.033081276817053626 -0.15308990934678743 -0.13379249195320758 -0.18880632613477383 -0.50261329587166026 0.040116760327015194 0.24629209593533277 -0.10962693967978471 0.031461306970772117 0.23161489401756502 0.04007478078444144 -0.040181485357527663 -0.059650166033645771 0.10492927998881908 -0.099701681222149272 -0.22590795344810363;-0.38811498062477989 0.081173210519921532 -0.53776173532554084 -0.27005725615799109 0.31869204803707574 -0.22883392491636148 -0.39714207754020697 0.25222427861799324 -0.33795303574895169 0.54281816596103216 -0.015712321010176895 -0.039188383679999432 0.44612561887017316 -0.14239214834781952 0.40998718717292559 -0.58526067121606717 0.12452901936789496 -0.040876815818107752 0.21440707085791283 -0.17563874472044635 -0.012977057130462408 -0.27504527470473528 0.16849766159447971 -0.11932039994926147 0.010770774683442862 0.32923993457675654 -0.017656619817838223 -0.53469026555474608 -0.014314835736473366 -0.14479312843199868 0.078552023937898452 0.31142619987583009 0.058793123074098431 0.027322298273562799 0.10108781587377798 0.10297035049273968 -0.36326801847457746 -0.47311962098046467 0.00103091309267334 0.38138966817708758 -0.10297338006583064;0.053781337975211473 -0.30384507062621285 -0.24539141157498098 -0.1554826060056356 -0.28658134618346653 -0.23640683802361978 -0.1117448622112289 0.35062527332307841 -0.10008712913616215 -0.39293733895679733 0.19475880202539134 -0.10935969499754425 0.17780356949370424 -0.34560706253129764 -0.13466337983943971 -0.35368104991884586 -0.070742118697873752 0.10194387318679317 -0.020745706521410556 -0.14274902639404685 0.27330117834137035 0.068505718845867675 -0.05557417646511302 -0.013592607537246709 -0.11115041902278683 -0.60834835313665925 0.35268001749158967 0.077605270231971973 0.09044869342847553 -0.13457674133107431 0.11317700843862356 0.1282869482717737 0.32565388435711018 0.28934707777129454 -0.093743903911493509 0.017731022178988816 -0.009267378828804726 0.15961868208603375 -0.10372907103954396 -0.030227737309164004 0.27861933701289709;-0.21479452320565734 0.08887711260570734 -0.15909765143175769 -0.34914488818508188 0.17453751598774928 -0.53756238727078298 -0.35565359623646375 0.43082352958575332 0.47878824938220288 0.31385951081741931 0.10317787941686576 0.40011867458724676 -0.3400957334428571 -0.04548732430456668 0.33355371194386813 0.15742931156411652 -0.073091508988157569 -0.24672646463501843 0.053988548531858659 -0.020117904947150565 0.05975328258065362 0.1427497417187272 -0.4251226671150351 -0.040806158528789445 -0.39751247458787292 -0.13174777896129708 -0.14788050386629267 -0.31361904848498617 -0.36914598732751158 0.11566324103250569 0.13227422209899664 -0.088311418035285486 -0.16713796124645944 0.23188983013596057 0.15505146764361502 -0.19888995906179532 -0.29051239361845349 0.18437782054781623 -0.68740451740937858 -0.09403491678190691 -0.27581549980405484;0.059636152124978518 0.021187554545258828 0.085861885448051067 -0.22919735172542516 0.18002252814251296 -0.20914587884307442 0.39584629405160215 -0.47369745426844834 0.12976229013456028 0.20403257024985585 0.032281386470962042 -0.16826409990883767 0.099024039445605505 -0.32274033798571683 0.33476139868385196 0.043505382837771792 0.15202901037666999 -0.023661859530720211 -0.38681684883562789 0.45971148533535761 0.11552356432393573 -0.34122315937172415 -0.23846437691754974 -0.07225886722062709 0.038784085073841346 0.25544958179662264 -0.27295333197993005 0.28129708071350079 -0.1689682246771825 -0.14190842803811107 0.067395436699350803 0.05093293537110985 0.35744862664512744 -0.20191910950596004 0.13739503933552533 -0.062077339054944482 0.0033567446215575451 0.064533403950327542 0.15992937433388663 -0.37269099523258803 0.04879061807056928;0.24145280853359802 -0.31521794603343745 -0.14640080164248359 -0.16868731657601566 -0.34212221216819783 -0.1319608859958292 -0.17143769771525613 0.2606283312635444 0.039574472680810019 -0.10065978239312295 0.012627881631634832 -0.25348607212808177 0.15430601263501714 -0.0020785831019480361 -0.44500292964930055 -0.13829417636899849 -0.0045771895934198807 -0.13432216638919317 0.09610383107832618 -0.20647806756427059 -0.025717414501077708 -0.27894425773848036 -0.26291299608989432 -0.037032841031497454 -0.058971253207940638 0.0263379571579993 -0.13212804415768195 -0.12183743285127333 0.21040270620359833 -0.17526186493322754 -0.056185154294566282 -0.27797534776198246 -0.53989693209966194 -0.069354305018260315 0.27700235601512269 0.31777318786786279 -0.4816219021124809 -0.38364909681108011 0.081162064360500955 -0.34353547401766121 -0.012229738924092992;0.38264886707873469 0.082172792456587235 0.26148618545181773 0.42950664758099383 -0.11709281228661172 -0.3350294013484264 -0.38401744105605301 0.017100612940323879 0.027573716505914232 -0.066559771103219048 -0.17263475222976801 -0.075333794821331651 0.4150806330554262 -0.094161710096494544 0.03957158506476656 0.3798086272635397 0.28435527365109775 -0.50381972899748795 0.15914081414282713 -0.18706597373125525 -0.079446854356914676 0.10086257940758429 -0.33144531800290411 0.32200355900974109 -0.10860475199887325 0.079424475458144336 -0.043739393343873834 0.30825500036660414 -0.30431600728842317 -0.096987486055088112 0.02952937677730879 0.12167260699036433 0.2525335391113448 0.2142171962099553 0.12705947945975293 0.33672720712804155 -0.29364723206583976 -0.34420174169897799 0.073965841713840519 -0.25796089694766966 -0.019156854185591383];

% Layer 2
b2 = [1.0105495271981648;-0.1705904885235871;0.25237908870167375;-0.29903298407532708];
